<?xml version="1.0"?>
<opencv_storage>
<cascade>
  <stageType>BOOST</stageType>
  <featureType>LBP</featureType>
  <height>60</height>
  <width>80</width>
  <stageParams>
    <boostType>GAB</boostType>
    <minHitRate>9.9500000476837158e-01</minHitRate>
    <maxFalseAlarm>5.0000000000000000e-01</maxFalseAlarm>
    <weightTrimRate>9.4999999999999996e-01</weightTrimRate>
    <maxDepth>1</maxDepth>
    <maxWeakCount>100</maxWeakCount></stageParams>
  <featureParams>
    <maxCatCount>256</maxCatCount>
    <featSize>1</featSize></featureParams>
  <stageNum>2</stageNum>
  <stages>
    <!-- stage 0 -->
    <_>
      <maxWeakCount>2</maxWeakCount>
      <stageThreshold>-1.4135575294494629e-01</stageThreshold>
      <weakClassifiers>
        <_>
          <internalNodes>
            0 -1 0 -123744201 43188228 196611 537329666 665610 16908288
            2170899 1342373907</internalNodes>
          <leafValues>
            -8.8142293691635132e-01 8.3520597219467163e-01</leafValues></_>
        <_>
          <internalNodes>
            0 -1 2 -166536193 1174503426 -2113449905 206110817
            -805272950 -2147352573 570565263 402735195</internalNodes>
          <leafValues>
            -8.1794923543930054e-01 7.4006718397140503e-01</leafValues></_></weakClassifiers></_>
    <!-- stage 1 -->
    <_>
      <maxWeakCount>2</maxWeakCount>
      <stageThreshold>-2.0533069968223572e-02</stageThreshold>
      <weakClassifiers>
        <_>
          <internalNodes>
            0 -1 3 -2077292801 134414350 4835 593931 2147450747
            251428735 2145288190 24605951</internalNodes>
          <leafValues>
            -8.1818181276321411e-01 8.4375000000000000e-01</leafValues></_>
        <_>
          <internalNodes>
            0 -1 1 -2131001309 555941889 0 268566531 196642 2228224
            196611 21193222</internalNodes>
          <leafValues>
            -8.4282803535461426e-01 7.9764872789382935e-01</leafValues></_></weakClassifiers></_></stages>
  <features>
    <_>
      <rect>
        4 0 22 17</rect></_>
    <_>
      <rect>
        21 1 14 18</rect></_>
    <_>
      <rect>
        23 7 18 8</rect></_>
    <_>
      <rect>
        42 25 10 6</rect></_></features></cascade>
</opencv_storage>
