<?xml version="1.0"?>
<opencv_storage>
<cascade>
  <stageType>BOOST</stageType>
  <featureType>HAAR</featureType>
  <height>24</height>
  <width>24</width>
  <stageParams>
    <boostType>GAB</boostType>
    <minHitRate>9.9900001287460327e-01</minHitRate>
    <maxFalseAlarm>5.0000000000000000e-01</maxFalseAlarm>
    <weightTrimRate>9.4999999999999996e-01</weightTrimRate>
    <maxDepth>1</maxDepth>
    <maxWeakCount>100</maxWeakCount></stageParams>
  <featureParams>
    <maxCatCount>0</maxCatCount>
    <featSize>1</featSize>
    <mode>ALL</mode></featureParams>
  <stageNum>20</stageNum>
  <stages>
    <!-- stage 0 -->
    <_>
      <maxWeakCount>11</maxWeakCount>
      <stageThreshold>-1.1847678422927856e+00</stageThreshold>
      <weakClassifiers>
        <_>
          <internalNodes>
            0 -1 73 -5.9030890464782715e-02</internalNodes>
          <leafValues>
            7.7391302585601807e-01 -6.4137929677963257e-01</leafValues></_>
        <_>
          <internalNodes>
            0 -1 17 -8.8491067290306091e-02</internalNodes>
          <leafValues>
            5.2009475231170654e-01 -4.9362573027610779e-01</leafValues></_>
        <_>
          <internalNodes>
            0 -1 253 -2.8064830228686333e-02</internalNodes>
          <leafValues>
            6.4419400691986084e-01 -1.9651001691818237e-01</leafValues></_>
        <_>
          <internalNodes>
            0 -1 158 -5.1386025734245777e-04</internalNodes>
          <leafValues>
            6.3085925579071045e-01 -1.7871975898742676e-01</leafValues></_>
        <_>
          <internalNodes>
            0 -1 307 1.5481472015380859e-02</internalNodes>
          <leafValues>
            1.7935213446617126e-01 -7.1904438734054565e-01</leafValues></_>
        <_>
          <internalNodes>
            0 -1 199 3.7098389118909836e-02</internalNodes>
          <leafValues>
            -2.2421044111251831e-01 6.4832007884979248e-01</leafValues></_>
        <_>
          <internalNodes>
            0 -1 392 -1.3622099068015814e-03</internalNodes>
          <leafValues>
            9.0572375059127808e-01 -1.3348551094532013e-01</leafValues></_>
        <_>
          <internalNodes>
            0 -1 447 1.7743464559316635e-02</internalNodes>
          <leafValues>
            2.5143313407897949e-01 -5.2125775814056396e-01</leafValues></_>
        <_>
          <internalNodes>
            0 -1 321 4.1072177700698376e-03</internalNodes>
          <leafValues>
            -1.4438785612583160e-01 7.8140932321548462e-01</leafValues></_>
        <_>
          <internalNodes>
            0 -1 75 -7.9454272054135799e-04</internalNodes>
          <leafValues>
            2.7828246355056763e-01 -4.1682049632072449e-01</leafValues></_>
        <_>
          <internalNodes>
            0 -1 229 5.9920735657215118e-04</internalNodes>
          <leafValues>
            -2.0013444125652313e-01 5.8873879909515381e-01</leafValues></_></weakClassifiers></_>
    <!-- stage 1 -->
    <_>
      <maxWeakCount>15</maxWeakCount>
      <stageThreshold>-1.2809393405914307e+00</stageThreshold>
      <weakClassifiers>
        <_>
          <internalNodes>
            0 -1 21 -5.7172633707523346e-02</internalNodes>
          <leafValues>
            7.0531398057937622e-01 -3.8427948951721191e-01</leafValues></_>
        <_>
          <internalNodes>
            0 -1 205 -1.2604989111423492e-02</internalNodes>
          <leafValues>
            5.2282494306564331e-01 -3.3400970697402954e-01</leafValues></_>
        <_>
          <internalNodes>
            0 -1 560 5.9647927992045879e-04</internalNodes>
          <leafValues>
            2.8038144111633301e-01 -5.4660779237747192e-01</leafValues></_>
        <_>
          <internalNodes>
            0 -1 12 -9.9018746986985207e-03</internalNodes>
          <leafValues>
            6.2198579311370850e-01 -1.8424385786056519e-01</leafValues></_>
        <_>
          <internalNodes>
            0 -1 256 -1.0031478106975555e-01</internalNodes>
          <leafValues>
            -7.7661317586898804e-01 1.2748847901821136e-01</leafValues></_>
        <_>
          <internalNodes>
            0 -1 276 -1.0206130100414157e-03</internalNodes>
          <leafValues>
            7.8790807723999023e-01 -1.6181899607181549e-01</leafValues></_>
        <_>
          <internalNodes>
            0 -1 26 -1.7994016408920288e-02</internalNodes>
          <leafValues>
            -6.1372852325439453e-01 2.0662525296211243e-01</leafValues></_>
        <_>
          <internalNodes>
            0 -1 141 5.0528831779956818e-02</internalNodes>
          <leafValues>
            -2.6782688498497009e-01 4.1769522428512573e-01</leafValues></_>
        <_>
          <internalNodes>
            0 -1 353 9.6963287796825171e-04</internalNodes>
          <leafValues>
            -1.5140166878700256e-01 7.0414680242538452e-01</leafValues></_>
        <_>
          <internalNodes>
            0 -1 353 -5.3420267067849636e-04</internalNodes>
          <leafValues>
            5.9421014785766602e-01 -1.9317117333412170e-01</leafValues></_>
        <_>
          <internalNodes>
            0 -1 294 6.2358863651752472e-03</internalNodes>
          <leafValues>
            -8.8905446231365204e-02 8.7270081043243408e-01</leafValues></_>
        <_>
          <internalNodes>
            0 -1 402 -2.0966127514839172e-02</internalNodes>
          <leafValues>
            5.2813535928726196e-01 -1.4908516407012939e-01</leafValues></_>
        <_>
          <internalNodes>
            0 -1 232 8.5744191892445087e-04</internalNodes>
          <leafValues>
            -1.3368579745292664e-01 5.9786123037338257e-01</leafValues></_>
        <_>
          <internalNodes>
            0 -1 416 5.6793410331010818e-03</internalNodes>
          <leafValues>
            -4.2809757590293884e-01 2.2196079790592194e-01</leafValues></_>
        <_>
          <internalNodes>
            0 -1 551 2.6704641059041023e-03</internalNodes>
          <leafValues>
            -1.3427634537220001e-01 7.8869760036468506e-01</leafValues></_></weakClassifiers></_>
    <!-- stage 2 -->
    <_>
      <maxWeakCount>22</maxWeakCount>
      <stageThreshold>-1.0831098556518555e+00</stageThreshold>
      <weakClassifiers>
        <_>
          <internalNodes>
            0 -1 22 -1.6096247732639313e-01</internalNodes>
          <leafValues>
            8.3243244886398315e-01 8.7499998509883881e-02</leafValues></_>
        <_>
          <internalNodes>
            0 -1 203 1.6754953190684319e-02</internalNodes>
          <leafValues>
            -3.7596157193183899e-01 3.3843490481376648e-01</leafValues></_>
        <_>
          <internalNodes>
            0 -1 331 9.0289629995822906e-02</internalNodes>
          <leafValues>
            1.5656895935535431e-01 -6.7100149393081665e-01</leafValues></_>
        <_>
          <internalNodes>
            0 -1 248 -1.9828989170491695e-03</internalNodes>
          <leafValues>
            8.7099540233612061e-01 -1.2340959906578064e-01</leafValues></_>
        <_>
          <internalNodes>
            0 -1 460 7.4364675674587488e-04</internalNodes>
          <leafValues>
            -1.3662979006767273e-01 6.4828622341156006e-01</leafValues></_>
        <_>
          <internalNodes>
            0 -1 430 -9.3878293409943581e-04</internalNodes>
          <leafValues>
            6.7254048585891724e-01 -1.3877509534358978e-01</leafValues></_>
        <_>
          <internalNodes>
            0 -1 338 7.6282350346446037e-03</internalNodes>
          <leafValues>
            1.6757369041442871e-01 -6.1735939979553223e-01</leafValues></_>
        <_>
          <internalNodes>
            0 -1 428 -7.5992499478161335e-04</internalNodes>
          <leafValues>
            5.3007251024246216e-01 -1.8902398645877838e-01</leafValues></_>
        <_>
          <internalNodes>
            0 -1 329 -1.2828858569264412e-02</internalNodes>
          <leafValues>
            -6.7041683197021484e-01 1.6168016195297241e-01</leafValues></_>
        <_>
          <internalNodes>
            0 -1 116 2.9804734513163567e-02</internalNodes>
          <leafValues>
            -1.7678442597389221e-01 5.4117673635482788e-01</leafValues></_>
        <_>
          <internalNodes>
            0 -1 486 3.1667899340391159e-02</internalNodes>
          <leafValues>
            -1.5434236824512482e-01 5.8038783073425293e-01</leafValues></_>
        <_>
          <internalNodes>
            0 -1 440 3.0645065009593964e-02</internalNodes>
          <leafValues>
            -1.4020246267318726e-01 5.9878313541412354e-01</leafValues></_>
        <_>
          <internalNodes>
            0 -1 509 -8.2321703433990479e-02</internalNodes>
          <leafValues>
            6.7806690931320190e-01 -1.2386022508144379e-01</leafValues></_>
        <_>
          <internalNodes>
            0 -1 350 -6.1407557222992182e-04</internalNodes>
          <leafValues>
            5.2388030290603638e-01 -1.4228396117687225e-01</leafValues></_>
        <_>
          <internalNodes>
            0 -1 359 -2.8129019774496555e-03</internalNodes>
          <leafValues>
            4.9626752734184265e-01 -1.3136738538742065e-01</leafValues></_>
        <_>
          <internalNodes>
            0 -1 189 6.6836411133408546e-04</internalNodes>
          <leafValues>
            -1.4868076145648956e-01 5.5830579996109009e-01</leafValues></_>
        <_>
          <internalNodes>
            0 -1 156 3.1389042735099792e-02</internalNodes>
          <leafValues>
            1.2235598266124725e-01 -7.3627144098281860e-01</leafValues></_>
        <_>
          <internalNodes>
            0 -1 317 -9.3769980594515800e-04</internalNodes>
          <leafValues>
            5.8256298303604126e-01 -1.5515743196010590e-01</leafValues></_>
        <_>
          <internalNodes>
            0 -1 127 -4.0953306597657502e-04</internalNodes>
          <leafValues>
            2.6302298903465271e-01 -3.0871942639350891e-01</leafValues></_>
        <_>
          <internalNodes>
            0 -1 520 -1.9615776836872101e-03</internalNodes>
          <leafValues>
            7.0794540643692017e-01 -1.3048385083675385e-01</leafValues></_>
        <_>
          <internalNodes>
            0 -1 224 3.3649947494268417e-02</internalNodes>
          <leafValues>
            1.4099405705928802e-01 -6.9917470216751099e-01</leafValues></_>
        <_>
          <internalNodes>
            0 -1 313 -1.7558567225933075e-02</internalNodes>
          <leafValues>
            -9.1376757621765137e-01 8.5896633565425873e-02</leafValues></_></weakClassifiers></_>
    <!-- stage 3 -->
    <_>
      <maxWeakCount>26</maxWeakCount>
      <stageThreshold>-8.7400609254837036e-01</stageThreshold>
      <weakClassifiers>
        <_>
          <internalNodes>
            0 -1 548 1.2355437502264977e-02</internalNodes>
          <leafValues>
            -2.0359280705451965e-01 5.6222546100616455e-01</leafValues></_>
        <_>
          <internalNodes>
            0 -1 9 -1.8435709178447723e-02</internalNodes>
          <leafValues>
            5.3621774911880493e-01 -2.1853016316890717e-01</leafValues></_>
        <_>
          <internalNodes>
            0 -1 424 -1.9143618643283844e-02</internalNodes>
          <leafValues>
            2.4501834809780121e-01 -3.5093298554420471e-01</leafValues></_>
        <_>
          <internalNodes>
            0 -1 539 3.9613202214241028e-02</internalNodes>
          <leafValues>
            -1.4597968757152557e-01 5.8128684759140015e-01</leafValues></_>
        <_>
          <internalNodes>
            0 -1 182 -6.6073536872863770e-03</internalNodes>
          <leafValues>
            7.4980002641677856e-01 -1.1654682457447052e-01</leafValues></_>
        <_>
          <internalNodes>
            0 -1 282 9.2917552683502436e-04</internalNodes>
          <leafValues>
            -1.2043166160583496e-01 6.1778503656387329e-01</leafValues></_>
        <_>
          <internalNodes>
            0 -1 316 -6.3331774435937405e-04</internalNodes>
          <leafValues>
            4.8601657152175903e-01 -1.2900730967521667e-01</leafValues></_>
        <_>
          <internalNodes>
            0 -1 314 -5.5475288536399603e-04</internalNodes>
          <leafValues>
            4.3553483486175537e-01 -1.4609503746032715e-01</leafValues></_>
        <_>
          <internalNodes>
            0 -1 529 1.7978377640247345e-02</internalNodes>
          <leafValues>
            -2.3145754635334015e-01 3.3687704801559448e-01</leafValues></_>
        <_>
          <internalNodes>
            0 -1 491 -2.0630056969821453e-03</internalNodes>
          <leafValues>
            6.7090535163879395e-01 -9.5026858150959015e-02</leafValues></_>
        <_>
          <internalNodes>
            0 -1 365 4.3679522350430489e-03</internalNodes>
          <leafValues>
            -7.1663811802864075e-02 8.1261909008026123e-01</leafValues></_>
        <_>
          <internalNodes>
            0 -1 413 -9.4999326393008232e-03</internalNodes>
          <leafValues>
            -5.9614205360412598e-01 1.2766079604625702e-01</leafValues></_>
        <_>
          <internalNodes>
            0 -1 210 6.2746824696660042e-03</internalNodes>
          <leafValues>
            9.8069019615650177e-02 -6.2383425235748291e-01</leafValues></_>
        <_>
          <internalNodes>
            0 -1 154 1.9514467567205429e-03</internalNodes>
          <leafValues>
            -9.6704751253128052e-02 7.8992950916290283e-01</leafValues></_>
        <_>
          <internalNodes>
            0 -1 145 -3.9904797449707985e-03</internalNodes>
          <leafValues>
            5.5678665637969971e-01 -1.1280594021081924e-01</leafValues></_>
        <_>
          <internalNodes>
            0 -1 157 1.9159481162205338e-03</internalNodes>
          <leafValues>
            -8.6028359830379486e-02 6.4922624826431274e-01</leafValues></_>
        <_>
          <internalNodes>
            0 -1 23 1.3760212063789368e-01</internalNodes>
          <leafValues>
            1.3713221251964569e-01 -5.1032787561416626e-01</leafValues></_>
        <_>
          <internalNodes>
            0 -1 411 -1.4038067311048508e-02</internalNodes>
          <leafValues>
            -5.1369261741638184e-01 1.2304388731718063e-01</leafValues></_>
        <_>
          <internalNodes>
            0 -1 64 -4.4451847672462463e-02</internalNodes>
          <leafValues>
            5.4091727733612061e-01 -1.2348431348800659e-01</leafValues></_>
        <_>
          <internalNodes>
            0 -1 518 -1.2349544558674097e-03</internalNodes>
          <leafValues>
            6.8906247615814209e-01 -8.4570668637752533e-02</leafValues></_>
        <_>
          <internalNodes>
            0 -1 414 -8.8614849373698235e-03</internalNodes>
          <leafValues>
            -8.3302885293960571e-01 8.9419975876808167e-02</leafValues></_>
        <_>
          <internalNodes>
            0 -1 384 -9.9095776677131653e-03</internalNodes>
          <leafValues>
            -6.2017267942428589e-01 9.3163393437862396e-02</leafValues></_>
        <_>
          <internalNodes>
            0 -1 426 6.7391234915703535e-04</internalNodes>
          <leafValues>
            -1.5079011023044586e-01 5.1864665746688843e-01</leafValues></_>
        <_>
          <internalNodes>
            0 -1 278 -2.5590546429157257e-03</internalNodes>
          <leafValues>
            7.2926449775695801e-01 -8.1393577158451080e-02</leafValues></_>
        <_>
          <internalNodes>
            0 -1 173 8.1867994740605354e-03</internalNodes>
          <leafValues>
            -8.6461506783962250e-02 6.1681771278381348e-01</leafValues></_>
        <_>
          <internalNodes>
            0 -1 299 -8.3570939023047686e-04</internalNodes>
          <leafValues>
            3.8628128170967102e-01 -1.5637952089309692e-01</leafValues></_></weakClassifiers></_>
    <!-- stage 4 -->
    <_>
      <maxWeakCount>25</maxWeakCount>
      <stageThreshold>-9.8371011018753052e-01</stageThreshold>
      <weakClassifiers>
        <_>
          <internalNodes>
            0 -1 401 -3.2286722213029861e-02</internalNodes>
          <leafValues>
            -2.4067796766757965e-01 5.4875445365905762e-01</leafValues></_>
        <_>
          <internalNodes>
            0 -1 49 6.3341204077005386e-03</internalNodes>
          <leafValues>
            2.6243257522583008e-01 -4.5439240336418152e-01</leafValues></_>
        <_>
          <internalNodes>
            0 -1 302 7.0205852389335632e-02</internalNodes>
          <leafValues>
            -3.7813884019851685e-01 2.5529152154922485e-01</leafValues></_>
        <_>
          <internalNodes>
            0 -1 220 -2.0260866731405258e-03</internalNodes>
          <leafValues>
            7.8518575429916382e-01 -1.1207570135593414e-01</leafValues></_>
        <_>
          <internalNodes>
            0 -1 252 5.0926394760608673e-03</internalNodes>
          <leafValues>
            -1.4088805019855499e-01 7.4031150341033936e-01</leafValues></_>
        <_>
          <internalNodes>
            0 -1 317 -1.2006489560008049e-03</internalNodes>
          <leafValues>
            6.7033237218856812e-01 -9.1504082083702087e-02</leafValues></_>
        <_>
          <internalNodes>
            0 -1 317 8.4262382006272674e-04</internalNodes>
          <leafValues>
            -1.3187493383884430e-01 5.3626555204391479e-01</leafValues></_>
        <_>
          <internalNodes>
            0 -1 55 -7.5535569339990616e-03</internalNodes>
          <leafValues>
            3.5512045025825500e-01 -1.9558313488960266e-01</leafValues></_>
        <_>
          <internalNodes>
            0 -1 550 -7.1039223112165928e-03</internalNodes>
          <leafValues>
            6.3202810287475586e-01 -1.0872308909893036e-01</leafValues></_>
        <_>
          <internalNodes>
            0 -1 394 5.5189157137647271e-04</internalNodes>
          <leafValues>
            -1.3287380337715149e-01 4.8065420985221863e-01</leafValues></_>
        <_>
          <internalNodes>
            0 -1 393 7.3831749614328146e-04</internalNodes>
          <leafValues>
            -1.4419859647750854e-01 5.0758618116378784e-01</leafValues></_>
        <_>
          <internalNodes>
            0 -1 310 -1.9626349210739136e-02</internalNodes>
          <leafValues>
            -6.2560755014419556e-01 1.1220941692590714e-01</leafValues></_>
        <_>
          <internalNodes>
            0 -1 374 -6.4362015109509230e-04</internalNodes>
          <leafValues>
            4.7217831015586853e-01 -1.4292532205581665e-01</leafValues></_>
        <_>
          <internalNodes>
            0 -1 554 -5.9590996243059635e-03</internalNodes>
          <leafValues>
            4.4654026627540588e-01 -1.4001818001270294e-01</leafValues></_>
        <_>
          <internalNodes>
            0 -1 155 1.5367518644779921e-03</internalNodes>
          <leafValues>
            1.5572206676006317e-01 -4.2227703332901001e-01</leafValues></_>
        <_>
          <internalNodes>
            0 -1 450 -6.9902261020615697e-04</internalNodes>
          <leafValues>
            3.8121140003204346e-01 -1.7710582911968231e-01</leafValues></_>
        <_>
          <internalNodes>
            0 -1 299 -8.3692942280322313e-04</internalNodes>
          <leafValues>
            3.9919710159301758e-01 -1.6014796495437622e-01</leafValues></_>
        <_>
          <internalNodes>
            0 -1 326 1.6953586600720882e-03</internalNodes>
          <leafValues>
            -1.0258611291646957e-01 5.9795421361923218e-01</leafValues></_>
        <_>
          <internalNodes>
            0 -1 445 -2.8193961828947067e-02</internalNodes>
          <leafValues>
            -5.9376180171966553e-01 1.2334971129894257e-01</leafValues></_>
        <_>
          <internalNodes>
            0 -1 385 -9.6646808087825775e-03</internalNodes>
          <leafValues>
            2.8861588239669800e-01 -2.5093808770179749e-01</leafValues></_>
        <_>
          <internalNodes>
            0 -1 234 -1.1437239591032267e-03</internalNodes>
          <leafValues>
            6.2000429630279541e-01 -9.9810555577278137e-02</leafValues></_>
        <_>
          <internalNodes>
            0 -1 211 8.1523796543478966e-03</internalNodes>
          <leafValues>
            1.2143101543188095e-01 -5.8513218164443970e-01</leafValues></_>
        <_>
          <internalNodes>
            0 -1 63 -1.4311010017991066e-02</internalNodes>
          <leafValues>
            4.2507055401802063e-01 -1.6018570959568024e-01</leafValues></_>
        <_>
          <internalNodes>
            0 -1 462 -1.5072090900503099e-04</internalNodes>
          <leafValues>
            -2.6367631554603577e-01 2.4644121527671814e-01</leafValues></_>
        <_>
          <internalNodes>
            0 -1 531 -3.1320825219154358e-03</internalNodes>
          <leafValues>
            -5.1601320505142212e-01 1.1552745848894119e-01</leafValues></_></weakClassifiers></_>
    <!-- stage 5 -->
    <_>
      <maxWeakCount>32</maxWeakCount>
      <stageThreshold>-8.9604336023330688e-01</stageThreshold>
      <weakClassifiers>
        <_>
          <internalNodes>
            0 -1 2 -3.8067333400249481e-02</internalNodes>
          <leafValues>
            7.2404372692108154e-01 1.7561984062194824e-01</leafValues></_>
        <_>
          <internalNodes>
            0 -1 449 3.9409138262271881e-02</internalNodes>
          <leafValues>
            -2.9300794005393982e-01 3.1125047802925110e-01</leafValues></_>
        <_>
          <internalNodes>
            0 -1 113 8.6112663149833679e-02</internalNodes>
          <leafValues>
            -1.6089405119419098e-01 5.2508038282394409e-01</leafValues></_>
        <_>
          <internalNodes>
            0 -1 28 -1.0334074497222900e-02</internalNodes>
          <leafValues>
            1.5721356868743896e-01 -3.8310548663139343e-01</leafValues></_>
        <_>
          <internalNodes>
            0 -1 95 -5.4833211004734039e-02</internalNodes>
          <leafValues>
            7.2180479764938354e-01 -8.8430292904376984e-02</leafValues></_>
        <_>
          <internalNodes>
            0 -1 161 5.3360167890787125e-02</internalNodes>
          <leafValues>
            1.0100176930427551e-01 -6.8085443973541260e-01</leafValues></_>
        <_>
          <internalNodes>
            0 -1 227 -1.3434616848826408e-03</internalNodes>
          <leafValues>
            6.3047283887863159e-01 -1.0662858933210373e-01</leafValues></_>
        <_>
          <internalNodes>
            0 -1 97 -8.2246549427509308e-03</internalNodes>
          <leafValues>
            6.1814421415328979e-01 -7.0851646363735199e-02</leafValues></_>
        <_>
          <internalNodes>
            0 -1 348 7.5973040657117963e-04</internalNodes>
          <leafValues>
            -1.3898850977420807e-01 4.8460721969604492e-01</leafValues></_>
        <_>
          <internalNodes>
            0 -1 217 -7.4124317616224289e-03</internalNodes>
          <leafValues>
            5.4368728399276733e-01 -1.1264543235301971e-01</leafValues></_>
        <_>
          <internalNodes>
            0 -1 345 -7.8869442222639918e-04</internalNodes>
          <leafValues>
            3.7763687968254089e-01 -1.5390358865261078e-01</leafValues></_>
        <_>
          <internalNodes>
            0 -1 262 -1.0872622951865196e-02</internalNodes>
          <leafValues>
            -5.2551454305648804e-01 1.2608510255813599e-01</leafValues></_>
        <_>
          <internalNodes>
            0 -1 172 -1.1539778206497431e-03</internalNodes>
          <leafValues>
            3.1728541851043701e-01 -1.8814113736152649e-01</leafValues></_>
        <_>
          <internalNodes>
            0 -1 543 -4.1477847844362259e-03</internalNodes>
          <leafValues>
            2.6863873004913330e-01 -2.1822252869606018e-01</leafValues></_>
        <_>
          <internalNodes>
            0 -1 251 -2.5230925530195236e-03</internalNodes>
          <leafValues>
            5.3699934482574463e-01 -1.1387652158737183e-01</leafValues></_>
        <_>
          <internalNodes>
            0 -1 410 -1.4589467318728566e-03</internalNodes>
          <leafValues>
            4.3295562267303467e-01 -1.4050391316413879e-01</leafValues></_>
        <_>
          <internalNodes>
            0 -1 489 -1.0075707919895649e-02</internalNodes>
          <leafValues>
            -5.6268608570098877e-01 1.2023204565048218e-01</leafValues></_>
        <_>
          <internalNodes>
            0 -1 352 9.5176731701940298e-04</internalNodes>
          <leafValues>
            -1.3078410923480988e-01 4.8653337359428406e-01</leafValues></_>
        <_>
          <internalNodes>
            0 -1 438 -3.0281372368335724e-02</internalNodes>
          <leafValues>
            -5.3576284646987915e-01 1.1429565399885178e-01</leafValues></_>
        <_>
          <internalNodes>
            0 -1 444 -1.1295221000909805e-01</internalNodes>
          <leafValues>
            -7.3255854845046997e-01 6.5768629312515259e-02</leafValues></_>
        <_>
          <internalNodes>
            0 -1 547 2.8468908742070198e-02</internalNodes>
          <leafValues>
            8.6008049547672272e-02 -5.9233635663986206e-01</leafValues></_>
        <_>
          <internalNodes>
            0 -1 291 5.5249594151973724e-02</internalNodes>
          <leafValues>
            -1.6277574002742767e-01 3.7737500667572021e-01</leafValues></_>
        <_>
          <internalNodes>
            0 -1 202 -6.8682776764035225e-03</internalNodes>
          <leafValues>
            7.1850615739822388e-01 -8.3691164851188660e-02</leafValues></_>
        <_>
          <internalNodes>
            0 -1 501 4.2267190292477608e-03</internalNodes>
          <leafValues>
            1.1932346224784851e-01 -5.7758867740631104e-01</leafValues></_>
        <_>
          <internalNodes>
            0 -1 351 1.4007355784997344e-03</internalNodes>
          <leafValues>
            -1.3017834722995758e-01 5.1417148113250732e-01</leafValues></_>
        <_>
          <internalNodes>
            0 -1 448 8.1785432994365692e-03</internalNodes>
          <leafValues>
            1.6542334854602814e-01 -4.2364385724067688e-01</leafValues></_>
        <_>
          <internalNodes>
            0 -1 357 1.0799947194755077e-03</internalNodes>
          <leafValues>
            -9.6488364040851593e-02 6.0780084133148193e-01</leafValues></_>
        <_>
          <internalNodes>
            0 -1 132 6.6946716979146004e-03</internalNodes>
          <leafValues>
            8.3563819527626038e-02 -7.7380412817001343e-01</leafValues></_>
        <_>
          <internalNodes>
            0 -1 246 -3.5929825156927109e-02</internalNodes>
          <leafValues>
            6.4515185356140137e-01 -9.7958743572235107e-02</leafValues></_>
        <_>
          <internalNodes>
            0 -1 397 5.5250884033739567e-03</internalNodes>
          <leafValues>
            -1.1078885197639465e-01 4.6743223071098328e-01</leafValues></_>
        <_>
          <internalNodes>
            0 -1 137 -1.9923476502299309e-03</internalNodes>
          <leafValues>
            5.0876277685165405e-01 -1.1032000929117203e-01</leafValues></_>
        <_>
          <internalNodes>
            0 -1 342 -2.6558842509984970e-02</internalNodes>
          <leafValues>
            -4.8155793547630310e-01 1.2233281135559082e-01</leafValues></_></weakClassifiers></_>
    <!-- stage 6 -->
    <_>
      <maxWeakCount>31</maxWeakCount>
      <stageThreshold>-7.2756570577621460e-01</stageThreshold>
      <weakClassifiers>
        <_>
          <internalNodes>
            0 -1 504 -3.6426939070224762e-02</internalNodes>
          <leafValues>
            7.4165457487106323e-01 1.8694362044334412e-01</leafValues></_>
        <_>
          <internalNodes>
            0 -1 13 -1.4382340013980865e-02</internalNodes>
          <leafValues>
            6.8018126487731934e-01 -5.6949775665998459e-02</leafValues></_>
        <_>
          <internalNodes>
            0 -1 99 -2.0730484277009964e-02</internalNodes>
          <leafValues>
            1.7106315493583679e-01 -4.2452421784400940e-01</leafValues></_>
        <_>
          <internalNodes>
            0 -1 292 6.1941899359226227e-02</internalNodes>
          <leafValues>
            -1.7506745457649231e-01 4.0166178345680237e-01</leafValues></_>
        <_>
          <internalNodes>
            0 -1 101 -1.4739635586738586e-01</internalNodes>
          <leafValues>
            -5.1743841171264648e-01 1.1609106510877609e-01</leafValues></_>
        <_>
          <internalNodes>
            0 -1 220 -2.2520786151289940e-03</internalNodes>
          <leafValues>
            6.4960694313049316e-01 -9.3897402286529541e-02</leafValues></_>
        <_>
          <internalNodes>
            0 -1 149 6.1387550085783005e-03</internalNodes>
          <leafValues>
            -9.0484462678432465e-02 7.3360520601272583e-01</leafValues></_>
        <_>
          <internalNodes>
            0 -1 382 7.5913360342383385e-04</internalNodes>
          <leafValues>
            -1.0680995136499405e-01 4.5605933666229248e-01</leafValues></_>
        <_>
          <internalNodes>
            0 -1 383 1.3142347335815430e-02</internalNodes>
          <leafValues>
            8.7785974144935608e-02 -6.9452363252639771e-01</leafValues></_>
        <_>
          <internalNodes>
            0 -1 323 1.9769722595810890e-02</internalNodes>
          <leafValues>
            -2.5620207190513611e-01 2.3836126923561096e-01</leafValues></_>
        <_>
          <internalNodes>
            0 -1 193 -7.0395655930042267e-03</internalNodes>
          <leafValues>
            3.6198720335960388e-01 -1.5858283638954163e-01</leafValues></_>
        <_>
          <internalNodes>
            0 -1 238 -8.5121125448495150e-04</internalNodes>
          <leafValues>
            4.7530025243759155e-01 -1.0704074054956436e-01</leafValues></_>
        <_>
          <internalNodes>
            0 -1 285 -1.0308659402653575e-03</internalNodes>
          <leafValues>
            3.8022482395172119e-01 -1.3026694953441620e-01</leafValues></_>
        <_>
          <internalNodes>
            0 -1 476 2.1110799163579941e-02</internalNodes>
          <leafValues>
            1.0430360585451126e-01 -5.2551907300949097e-01</leafValues></_>
        <_>
          <internalNodes>
            0 -1 422 9.1673489660024643e-03</internalNodes>
          <leafValues>
            9.5792412757873535e-02 -5.9096652269363403e-01</leafValues></_>
        <_>
          <internalNodes>
            0 -1 86 1.7951440531760454e-03</internalNodes>
          <leafValues>
            -1.3410243391990662e-01 4.1294118762016296e-01</leafValues></_>
        <_>
          <internalNodes>
            0 -1 124 -1.4835545420646667e-01</internalNodes>
          <leafValues>
            -7.9623275995254517e-01 7.5367964804172516e-02</leafValues></_>
        <_>
          <internalNodes>
            0 -1 573 2.3891949094831944e-03</internalNodes>
          <leafValues>
            -1.3271984457969666e-01 4.0445163846015930e-01</leafValues></_>
        <_>
          <internalNodes>
            0 -1 192 9.6144847339019179e-04</internalNodes>
          <leafValues>
            -9.6101880073547363e-02 4.8543506860733032e-01</leafValues></_>
        <_>
          <internalNodes>
            0 -1 327 5.2141752094030380e-03</internalNodes>
          <leafValues>
            1.4262400567531586e-01 -3.9706677198410034e-01</leafValues></_>
        <_>
          <internalNodes>
            0 -1 123 4.8940880224108696e-03</internalNodes>
          <leafValues>
            -8.5943557322025299e-02 6.1443573236465454e-01</leafValues></_>
        <_>
          <internalNodes>
            0 -1 192 -1.1458140797913074e-03</internalNodes>
          <leafValues>
            5.4421472549438477e-01 -8.0588579177856445e-02</leafValues></_>
        <_>
          <internalNodes>
            0 -1 492 -1.5371738001704216e-02</internalNodes>
          <leafValues>
            -7.3568063974380493e-01 7.4318252503871918e-02</leafValues></_>
        <_>
          <internalNodes>
            0 -1 518 1.2113689444959164e-03</internalNodes>
          <leafValues>
            -9.6237093210220337e-02 5.8299690485000610e-01</leafValues></_>
        <_>
          <internalNodes>
            0 -1 269 -1.8421756103634834e-02</internalNodes>
          <leafValues>
            -6.2471228837966919e-01 9.2187866568565369e-02</leafValues></_>
        <_>
          <internalNodes>
            0 -1 31 -3.7761800922453403e-03</internalNodes>
          <leafValues>
            1.3542924821376801e-01 -3.7351223826408386e-01</leafValues></_>
        <_>
          <internalNodes>
            0 -1 4 -1.6640460491180420e-01</internalNodes>
          <leafValues>
            -7.1697342395782471e-01 7.4218839406967163e-02</leafValues></_>
        <_>
          <internalNodes>
            0 -1 441 2.6264300104230642e-03</internalNodes>
          <leafValues>
            -7.9585805535316467e-02 7.5554865598678589e-01</leafValues></_>
        <_>
          <internalNodes>
            0 -1 336 1.8958393484354019e-02</internalNodes>
          <leafValues>
            8.5625462234020233e-02 -6.5378117561340332e-01</leafValues></_>
        <_>
          <internalNodes>
            0 -1 534 -9.3119998928159475e-04</internalNodes>
          <leafValues>
            3.8294342160224915e-01 -1.4738172292709351e-01</leafValues></_>
        <_>
          <internalNodes>
            0 -1 493 7.9652778804302216e-03</internalNodes>
          <leafValues>
            1.0192360728979111e-01 -5.1658701896667480e-01</leafValues></_></weakClassifiers></_>
    <!-- stage 7 -->
    <_>
      <maxWeakCount>36</maxWeakCount>
      <stageThreshold>-1.0216586589813232e+00</stageThreshold>
      <weakClassifiers>
        <_>
          <internalNodes>
            0 -1 494 2.8987843543291092e-03</internalNodes>
          <leafValues>
            -9.9378883838653564e-02 5.3120464086532593e-01</leafValues></_>
        <_>
          <internalNodes>
            0 -1 179 3.2206885516643524e-02</internalNodes>
          <leafValues>
            -1.2048617750406265e-01 5.0901579856872559e-01</leafValues></_>
        <_>
          <internalNodes>
            0 -1 106 -1.3629049062728882e-02</internalNodes>
          <leafValues>
            2.6205363869667053e-01 -2.7200067043304443e-01</leafValues></_>
        <_>
          <internalNodes>
            0 -1 7 -3.0022462829947472e-02</internalNodes>
          <leafValues>
            4.0984252095222473e-01 -1.8933551013469696e-01</leafValues></_>
        <_>
          <internalNodes>
            0 -1 361 1.3700504787266254e-03</internalNodes>
          <leafValues>
            -1.8931783735752106e-01 3.4248206019401550e-01</leafValues></_>
        <_>
          <internalNodes>
            0 -1 171 4.1664140298962593e-03</internalNodes>
          <leafValues>
            -9.1796234250068665e-02 6.1951512098312378e-01</leafValues></_>
        <_>
          <internalNodes>
            0 -1 358 -2.3391712456941605e-02</internalNodes>
          <leafValues>
            4.4451650977134705e-01 -1.2491852790117264e-01</leafValues></_>
        <_>
          <internalNodes>
            0 -1 526 1.3869214802980423e-02</internalNodes>
          <leafValues>
            -1.5719631314277649e-01 3.5684552788734436e-01</leafValues></_>
        <_>
          <internalNodes>
            0 -1 300 9.5770405605435371e-03</internalNodes>
          <leafValues>
            8.3484381437301636e-02 -6.1799478530883789e-01</leafValues></_>
        <_>
          <internalNodes>
            0 -1 308 -2.7529818937182426e-02</internalNodes>
          <leafValues>
            -7.9229795932769775e-01 5.6673541665077209e-02</leafValues></_>
        <_>
          <internalNodes>
            0 -1 264 4.2792353779077530e-03</internalNodes>
          <leafValues>
            1.4636524021625519e-01 -3.4389591217041016e-01</leafValues></_>
        <_>
          <internalNodes>
            0 -1 201 4.0378263220191002e-03</internalNodes>
          <leafValues>
            -7.7005907893180847e-02 7.3047959804534912e-01</leafValues></_>
        <_>
          <internalNodes>
            0 -1 366 1.2265741825103760e-01</internalNodes>
          <leafValues>
            1.1275830864906311e-01 -5.2906370162963867e-01</leafValues></_>
        <_>
          <internalNodes>
            0 -1 575 -8.7277288548648357e-04</internalNodes>
          <leafValues>
            4.7029593586921692e-01 -1.2556500732898712e-01</leafValues></_>
        <_>
          <internalNodes>
            0 -1 513 -8.3660421660169959e-04</internalNodes>
          <leafValues>
            3.8412192463874817e-01 -1.3969439268112183e-01</leafValues></_>
        <_>
          <internalNodes>
            0 -1 519 3.9550308138132095e-03</internalNodes>
          <leafValues>
            8.8094979524612427e-02 -6.6540539264678955e-01</leafValues></_>
        <_>
          <internalNodes>
            0 -1 78 4.0512964129447937e-02</internalNodes>
          <leafValues>
            6.0512643307447433e-02 -7.7350986003875732e-01</leafValues></_>
        <_>
          <internalNodes>
            0 -1 309 -4.9707689322531223e-04</internalNodes>
          <leafValues>
            3.3366680145263672e-01 -1.6163754463195801e-01</leafValues></_>
        <_>
          <internalNodes>
            0 -1 309 6.8818056024610996e-04</internalNodes>
          <leafValues>
            -1.2660507857799530e-01 5.0211215019226074e-01</leafValues></_>
        <_>
          <internalNodes>
            0 -1 272 4.6653421595692635e-03</internalNodes>
          <leafValues>
            1.0716798901557922e-01 -5.3489476442337036e-01</leafValues></_>
        <_>
          <internalNodes>
            0 -1 367 -6.4825348090380430e-04</internalNodes>
          <leafValues>
            3.5741090774536133e-01 -1.5562604367733002e-01</leafValues></_>
        <_>
          <internalNodes>
            0 -1 580 -7.3635587468743324e-03</internalNodes>
          <leafValues>
            7.1876847743988037e-01 -7.2117932140827179e-02</leafValues></_>
        <_>
          <internalNodes>
            0 -1 431 7.8774068970233202e-04</internalNodes>
          <leafValues>
            -1.3978102803230286e-01 3.3435717225074768e-01</leafValues></_>
        <_>
          <internalNodes>
            0 -1 574 -1.8083914183080196e-03</internalNodes>
          <leafValues>
            5.2870178222656250e-01 -8.8058888912200928e-02</leafValues></_>
        <_>
          <internalNodes>
            0 -1 24 4.1252523660659790e-02</internalNodes>
          <leafValues>
            1.0018283128738403e-01 -5.4975408315658569e-01</leafValues></_>
        <_>
          <internalNodes>
            0 -1 93 3.0731189250946045e-01</internalNodes>
          <leafValues>
            5.2460085600614548e-02 -8.9256203174591064e-01</leafValues></_>
        <_>
          <internalNodes>
            0 -1 479 1.0119251906871796e-02</internalNodes>
          <leafValues>
            7.8684322535991669e-02 -5.5536705255508423e-01</leafValues></_>
        <_>
          <internalNodes>
            0 -1 507 5.1969112828373909e-03</internalNodes>
          <leafValues>
            -1.1469972878694534e-01 4.5839691162109375e-01</leafValues></_>
        <_>
          <internalNodes>
            0 -1 482 1.0885491501539946e-03</internalNodes>
          <leafValues>
            -8.9773610234260559e-02 5.6079161167144775e-01</leafValues></_>
        <_>
          <internalNodes>
            0 -1 143 -2.7112692594528198e-02</internalNodes>
          <leafValues>
            6.2954246997833252e-01 -8.1111229956150055e-02</leafValues></_>
        <_>
          <internalNodes>
            0 -1 6 -7.5765728950500488e-01</internalNodes>
          <leafValues>
            5.7665812969207764e-01 -8.3904199302196503e-02</leafValues></_>
        <_>
          <internalNodes>
            0 -1 565 5.4146628826856613e-03</internalNodes>
          <leafValues>
            -9.4813965260982513e-02 5.4358452558517456e-01</leafValues></_>
        <_>
          <internalNodes>
            0 -1 348 8.9456734713166952e-04</internalNodes>
          <leafValues>
            -1.0293243080377579e-01 4.4431397318840027e-01</leafValues></_>
        <_>
          <internalNodes>
            0 -1 60 -3.0672540888190269e-03</internalNodes>
          <leafValues>
            6.5259438753128052e-01 -7.1082852780818939e-02</leafValues></_>
        <_>
          <internalNodes>
            0 -1 566 1.2741241604089737e-02</internalNodes>
          <leafValues>
            -1.2030757963657379e-01 4.4608974456787109e-01</leafValues></_>
        <_>
          <internalNodes>
            0 -1 561 -9.2791588976979256e-03</internalNodes>
          <leafValues>
            7.4034917354583740e-01 -6.6239669919013977e-02</leafValues></_></weakClassifiers></_>
    <!-- stage 8 -->
    <_>
      <maxWeakCount>29</maxWeakCount>
      <stageThreshold>-7.6419633626937866e-01</stageThreshold>
      <weakClassifiers>
        <_>
          <internalNodes>
            0 -1 412 1.0343090631067753e-02</internalNodes>
          <leafValues>
            -1.8500000238418579e-01 5.9538459777832031e-01</leafValues></_>
        <_>
          <internalNodes>
            0 -1 19 -2.8462061658501625e-02</internalNodes>
          <leafValues>
            3.9995506405830383e-01 -2.8520181775093079e-01</leafValues></_>
        <_>
          <internalNodes>
            0 -1 115 -8.7909428402781487e-03</internalNodes>
          <leafValues>
            6.2650489807128906e-01 -1.2228552252054214e-01</leafValues></_>
        <_>
          <internalNodes>
            0 -1 540 6.7079570144414902e-03</internalNodes>
          <leafValues>
            -2.3016837239265442e-01 3.4838557243347168e-01</leafValues></_>
        <_>
          <internalNodes>
            0 -1 434 9.4227772206068039e-04</internalNodes>
          <leafValues>
            -1.2180224061012268e-01 6.2397497892379761e-01</leafValues></_>
        <_>
          <internalNodes>
            0 -1 427 -4.8701412742957473e-04</internalNodes>
          <leafValues>
            5.0937730073928833e-01 -1.2063923478126526e-01</leafValues></_>
        <_>
          <internalNodes>
            0 -1 426 -4.9186230171471834e-04</internalNodes>
          <leafValues>
            4.4268533587455750e-01 -1.9777041673660278e-01</leafValues></_>
        <_>
          <internalNodes>
            0 -1 188 1.7182195559144020e-02</internalNodes>
          <leafValues>
            1.0852432250976562e-01 -7.2604417800903320e-01</leafValues></_>
        <_>
          <internalNodes>
            0 -1 425 -5.4220168385654688e-04</internalNodes>
          <leafValues>
            4.5419940352439880e-01 -1.7152979969978333e-01</leafValues></_>
        <_>
          <internalNodes>
            0 -1 91 -4.9811708740890026e-03</internalNodes>
          <leafValues>
            4.9235907196998596e-01 -1.3122932612895966e-01</leafValues></_>
        <_>
          <internalNodes>
            0 -1 168 1.4164230378810316e-04</internalNodes>
          <leafValues>
            2.3152579367160797e-01 -3.0701690912246704e-01</leafValues></_>
        <_>
          <internalNodes>
            0 -1 32 -2.6610745117068291e-03</internalNodes>
          <leafValues>
            -3.0249845981597900e-01 2.0999021828174591e-01</leafValues></_>
        <_>
          <internalNodes>
            0 -1 15 -4.7739008441567421e-03</internalNodes>
          <leafValues>
            6.0260027647018433e-01 -1.1923536658287048e-01</leafValues></_>
        <_>
          <internalNodes>
            0 -1 216 -9.0755103155970573e-04</internalNodes>
          <leafValues>
            5.8324080705642700e-01 -1.0371875762939453e-01</leafValues></_>
        <_>
          <internalNodes>
            0 -1 288 -7.2560496628284454e-03</internalNodes>
          <leafValues>
            4.7438484430313110e-01 -1.2445652484893799e-01</leafValues></_>
        <_>
          <internalNodes>
            0 -1 53 1.3845806824974716e-04</internalNodes>
          <leafValues>
            2.3194020986557007e-01 -3.2758679986000061e-01</leafValues></_>
        <_>
          <internalNodes>
            0 -1 454 -8.8867789600044489e-04</internalNodes>
          <leafValues>
            5.8310931921005249e-01 -1.1697602272033691e-01</leafValues></_>
        <_>
          <internalNodes>
            0 -1 512 3.8046076952014118e-05</internalNodes>
          <leafValues>
            2.5641202926635742e-01 -2.4873855710029602e-01</leafValues></_>
        <_>
          <internalNodes>
            0 -1 429 1.4220692683011293e-03</internalNodes>
          <leafValues>
            -1.7842231690883636e-01 3.9645335078239441e-01</leafValues></_>
        <_>
          <internalNodes>
            0 -1 212 -1.3639462180435658e-02</internalNodes>
          <leafValues>
            -5.6273508071899414e-01 1.2008714675903320e-01</leafValues></_>
        <_>
          <internalNodes>
            0 -1 151 4.5480364933609962e-03</internalNodes>
          <leafValues>
            -9.2384085059165955e-02 7.8116458654403687e-01</leafValues></_>
        <_>
          <internalNodes>
            0 -1 204 9.7475834190845490e-03</internalNodes>
          <leafValues>
            1.6301032900810242e-01 -4.3215677142143250e-01</leafValues></_>
        <_>
          <internalNodes>
            0 -1 227 -6.4102129545062780e-04</internalNodes>
          <leafValues>
            4.3647661805152893e-01 -1.5616275370121002e-01</leafValues></_>
        <_>
          <internalNodes>
            0 -1 3 6.0672510415315628e-02</internalNodes>
          <leafValues>
            -9.1236025094985962e-02 6.0113012790679932e-01</leafValues></_>
        <_>
          <internalNodes>
            0 -1 423 1.9154647365212440e-02</internalNodes>
          <leafValues>
            9.6474237740039825e-02 -7.4710798263549805e-01</leafValues></_>
        <_>
          <internalNodes>
            0 -1 454 7.5596803799271584e-04</internalNodes>
          <leafValues>
            -1.3912937045097351e-01 4.8804843425750732e-01</leafValues></_>
        <_>
          <internalNodes>
            0 -1 34 9.6466727554798126e-03</internalNodes>
          <leafValues>
            -7.1081563830375671e-02 7.0363461971282959e-01</leafValues></_>
        <_>
          <internalNodes>
            0 -1 174 -4.7225540038198233e-04</internalNodes>
          <leafValues>
            -3.6602926254272461e-01 1.7834182083606720e-01</leafValues></_>
        <_>
          <internalNodes>
            0 -1 30 -2.2452678531408310e-02</internalNodes>
          <leafValues>
            3.1064647436141968e-01 -1.9901196658611298e-01</leafValues></_></weakClassifiers></_>
    <!-- stage 9 -->
    <_>
      <maxWeakCount>41</maxWeakCount>
      <stageThreshold>-1.0051988363265991e+00</stageThreshold>
      <weakClassifiers>
        <_>
          <internalNodes>
            0 -1 50 -1.7114296555519104e-01</internalNodes>
          <leafValues>
            7.0179951190948486e-01 1.6702820360660553e-01</leafValues></_>
        <_>
          <internalNodes>
            0 -1 40 2.6765003800392151e-02</internalNodes>
          <leafValues>
            -6.4855180680751801e-02 6.5615016222000122e-01</leafValues></_>
        <_>
          <internalNodes>
            0 -1 518 9.0951030142605305e-04</internalNodes>
          <leafValues>
            -1.4131866395473480e-01 5.8237403631210327e-01</leafValues></_>
        <_>
          <internalNodes>
            0 -1 518 -8.0881937174126506e-04</internalNodes>
          <leafValues>
            5.7272160053253174e-01 -1.4752443134784698e-01</leafValues></_>
        <_>
          <internalNodes>
            0 -1 569 5.1680682227015495e-03</internalNodes>
          <leafValues>
            -1.0863751918077469e-01 5.7906973361968994e-01</leafValues></_>
        <_>
          <internalNodes>
            0 -1 563 2.3611141368746758e-02</internalNodes>
          <leafValues>
            -1.3103939592838287e-01 5.7983613014221191e-01</leafValues></_>
        <_>
          <internalNodes>
            0 -1 266 -2.7172856032848358e-02</internalNodes>
          <leafValues>
            -6.8151271343231201e-01 1.0176467895507812e-01</leafValues></_>
        <_>
          <internalNodes>
            0 -1 189 -6.0172169469296932e-04</internalNodes>
          <leafValues>
            4.9964597821235657e-01 -1.3845881819725037e-01</leafValues></_>
        <_>
          <internalNodes>
            0 -1 79 -1.1512158671393991e-03</internalNodes>
          <leafValues>
            2.3971103131771088e-01 -2.3556989431381226e-01</leafValues></_>
        <_>
          <internalNodes>
            0 -1 495 -6.6587532637640834e-04</internalNodes>
          <leafValues>
            4.6356511116027832e-01 -1.2529632449150085e-01</leafValues></_>
        <_>
          <internalNodes>
            0 -1 495 8.7089720182120800e-04</internalNodes>
          <leafValues>
            -1.1374840140342712e-01 4.8869052529335022e-01</leafValues></_>
        <_>
          <internalNodes>
            0 -1 452 -3.6855436861515045e-02</internalNodes>
          <leafValues>
            -7.0064544677734375e-01 9.0440005064010620e-02</leafValues></_>
        <_>
          <internalNodes>
            0 -1 207 -1.6900228336453438e-02</internalNodes>
          <leafValues>
            2.7445054054260254e-01 -1.9455190002918243e-01</leafValues></_>
        <_>
          <internalNodes>
            0 -1 62 1.3841414451599121e-01</internalNodes>
          <leafValues>
            7.7725574374198914e-02 -6.7814624309539795e-01</leafValues></_>
        <_>
          <internalNodes>
            0 -1 242 6.8702781572937965e-03</internalNodes>
          <leafValues>
            -1.0233516991138458e-01 6.3438671827316284e-01</leafValues></_>
        <_>
          <internalNodes>
            0 -1 309 -6.2915135640650988e-04</internalNodes>
          <leafValues>
            4.1559854149818420e-01 -1.1004675179719925e-01</leafValues></_>
        <_>
          <internalNodes>
            0 -1 470 -1.4288257807493210e-02</internalNodes>
          <leafValues>
            2.3501341044902802e-01 -2.2085529565811157e-01</leafValues></_>
        <_>
          <internalNodes>
            0 -1 281 8.6938147433102131e-04</internalNodes>
          <leafValues>
            -1.1976105719804764e-01 4.6874424815177917e-01</leafValues></_>
        <_>
          <internalNodes>
            0 -1 498 5.2598130423575640e-04</internalNodes>
          <leafValues>
            -1.2264112383127213e-01 4.3569341301918030e-01</leafValues></_>
        <_>
          <internalNodes>
            0 -1 522 1.6395460814237595e-02</internalNodes>
          <leafValues>
            -1.0886063426733017e-01 4.7721561789512634e-01</leafValues></_>
        <_>
          <internalNodes>
            0 -1 510 -1.2851640349254012e-03</internalNodes>
          <leafValues>
            3.4935840964317322e-01 -1.9104965031147003e-01</leafValues></_>
        <_>
          <internalNodes>
            0 -1 271 5.4710404947400093e-04</internalNodes>
          <leafValues>
            -1.3269570469856262e-01 3.9659518003463745e-01</leafValues></_>
        <_>
          <internalNodes>
            0 -1 377 1.6558017581701279e-02</internalNodes>
          <leafValues>
            9.0641930699348450e-02 -6.7080509662628174e-01</leafValues></_>
        <_>
          <internalNodes>
            0 -1 456 -5.1425490528345108e-04</internalNodes>
          <leafValues>
            3.5848981142044067e-01 -1.5587440133094788e-01</leafValues></_>
        <_>
          <internalNodes>
            0 -1 131 -2.7291460428386927e-03</internalNodes>
          <leafValues>
            2.2759041190147400e-01 -2.3550362884998322e-01</leafValues></_>
        <_>
          <internalNodes>
            0 -1 392 -1.1979048140347004e-03</internalNodes>
          <leafValues>
            5.9914773702621460e-01 -9.1290205717086792e-02</leafValues></_>
        <_>
          <internalNodes>
            0 -1 43 3.3375561237335205e-02</internalNodes>
          <leafValues>
            -1.3729667663574219e-01 3.4354290366172791e-01</leafValues></_>
        <_>
          <internalNodes>
            0 -1 142 4.3164833914488554e-04</internalNodes>
          <leafValues>
            1.5830893814563751e-01 -4.1393163800239563e-01</leafValues></_>
        <_>
          <internalNodes>
            0 -1 287 6.6669462248682976e-03</internalNodes>
          <leafValues>
            -1.3519652187824249e-01 4.0986579656600952e-01</leafValues></_>
        <_>
          <internalNodes>
            0 -1 530 -5.5639911442995071e-03</internalNodes>
          <leafValues>
            3.8630649447441101e-01 -1.3371558487415314e-01</leafValues></_>
        <_>
          <internalNodes>
            0 -1 373 2.4493888020515442e-02</internalNodes>
          <leafValues>
            -3.1910920143127441e-01 1.7892269790172577e-01</leafValues></_>
        <_>
          <internalNodes>
            0 -1 370 -8.7683320045471191e-02</internalNodes>
          <leafValues>
            -8.3530479669570923e-01 6.3934333622455597e-02</leafValues></_>
        <_>
          <internalNodes>
            0 -1 464 2.9617734253406525e-04</internalNodes>
          <leafValues>
            1.9218517839908600e-01 -2.9365557432174683e-01</leafValues></_>
        <_>
          <internalNodes>
            0 -1 399 3.1284333090297878e-04</internalNodes>
          <leafValues>
            2.0245200395584106e-01 -2.9195690155029297e-01</leafValues></_>
        <_>
          <internalNodes>
            0 -1 346 -6.4883206505328417e-04</internalNodes>
          <leafValues>
            4.4384321570396423e-01 -1.3867150247097015e-01</leafValues></_>
        <_>
          <internalNodes>
            0 -1 8 6.7417277023196220e-03</internalNodes>
          <leafValues>
            -1.3520853221416473e-01 4.1064625978469849e-01</leafValues></_>
        <_>
          <internalNodes>
            0 -1 225 5.1912944763898849e-03</internalNodes>
          <leafValues>
            9.7250707447528839e-02 -6.3687860965728760e-01</leafValues></_>
        <_>
          <internalNodes>
            0 -1 58 3.2968856394290924e-03</internalNodes>
          <leafValues>
            1.5644545853137970e-01 -3.7086367607116699e-01</leafValues></_>
        <_>
          <internalNodes>
            0 -1 497 1.2941008899360895e-03</internalNodes>
          <leafValues>
            -1.0756421834230423e-01 5.5238318443298340e-01</leafValues></_>
        <_>
          <internalNodes>
            0 -1 215 -1.1163565795868635e-03</internalNodes>
          <leafValues>
            5.5976194143295288e-01 -8.4166184067726135e-02</leafValues></_>
        <_>
          <internalNodes>
            0 -1 135 -2.1053316071629524e-02</internalNodes>
          <leafValues>
            2.8042194247245789e-01 -1.9960293173789978e-01</leafValues></_></weakClassifiers></_>
    <!-- stage 10 -->
    <_>
      <maxWeakCount>37</maxWeakCount>
      <stageThreshold>-7.4930787086486816e-01</stageThreshold>
      <weakClassifiers>
        <_>
          <internalNodes>
            0 -1 546 3.3420436084270477e-02</internalNodes>
          <leafValues>
            2.2245322167873383e-01 6.5853661298751831e-01</leafValues></_>
        <_>
          <internalNodes>
            0 -1 555 1.8652213038876653e-03</internalNodes>
          <leafValues>
            -5.1608551293611526e-02 5.9747427701950073e-01</leafValues></_>
        <_>
          <internalNodes>
            0 -1 222 2.2349599748849869e-03</internalNodes>
          <leafValues>
            -1.2310859560966492e-01 5.4421228170394897e-01</leafValues></_>
        <_>
          <internalNodes>
            0 -1 430 -9.5469038933515549e-04</internalNodes>
          <leafValues>
            5.4626131057739258e-01 -1.0352395474910736e-01</leafValues></_>
        <_>
          <internalNodes>
            0 -1 453 2.4211490526795387e-03</internalNodes>
          <leafValues>
            1.7673957347869873e-01 -3.5595247149467468e-01</leafValues></_>
        <_>
          <internalNodes>
            0 -1 316 6.1882805312052369e-04</internalNodes>
          <leafValues>
            -1.4523541927337646e-01 4.5309692621231079e-01</leafValues></_>
        <_>
          <internalNodes>
            0 -1 353 -1.4371452853083611e-03</internalNodes>
          <leafValues>
            6.4196091890335083e-01 -9.9837064743041992e-02</leafValues></_>
        <_>
          <internalNodes>
            0 -1 152 1.8999993801116943e-02</internalNodes>
          <leafValues>
            -1.5872581303119659e-01 3.3816123008728027e-01</leafValues></_>
        <_>
          <internalNodes>
            0 -1 84 -2.5830187951214612e-04</internalNodes>
          <leafValues>
            1.5051831305027008e-01 -3.6121308803558350e-01</leafValues></_>
        <_>
          <internalNodes>
            0 -1 353 1.2535445857793093e-03</internalNodes>
          <leafValues>
            -1.1267347633838654e-01 5.2818578481674194e-01</leafValues></_>
        <_>
          <internalNodes>
            0 -1 128 -3.0027445405721664e-02</internalNodes>
          <leafValues>
            -7.1165138483047485e-01 8.3815708756446838e-02</leafValues></_>
        <_>
          <internalNodes>
            0 -1 405 2.7741890400648117e-02</internalNodes>
          <leafValues>
            8.3160772919654846e-02 -5.7624572515487671e-01</leafValues></_>
        <_>
          <internalNodes>
            0 -1 572 -1.7995762173086405e-03</internalNodes>
          <leafValues>
            4.2853733897209167e-01 -1.2730306386947632e-01</leafValues></_>
        <_>
          <internalNodes>
            0 -1 246 1.7883013933897018e-02</internalNodes>
          <leafValues>
            -2.0664404332637787e-01 2.7898898720741272e-01</leafValues></_>
        <_>
          <internalNodes>
            0 -1 485 3.4033656120300293e-02</internalNodes>
          <leafValues>
            8.6027659475803375e-02 -6.6386020183563232e-01</leafValues></_>
        <_>
          <internalNodes>
            0 -1 185 1.5071546658873558e-03</internalNodes>
          <leafValues>
            -1.1114580929279327e-01 5.3036880493164062e-01</leafValues></_>
        <_>
          <internalNodes>
            0 -1 311 1.3487607240676880e-02</internalNodes>
          <leafValues>
            6.7454643547534943e-02 -8.9799547195434570e-01</leafValues></_>
        <_>
          <internalNodes>
            0 -1 85 -8.1838190555572510e-02</internalNodes>
          <leafValues>
            8.5387504100799561e-01 -7.8732788562774658e-02</leafValues></_>
        <_>
          <internalNodes>
            0 -1 118 -1.6143592074513435e-02</internalNodes>
          <leafValues>
            6.1748158931732178e-01 -7.2980917990207672e-02</leafValues></_>
        <_>
          <internalNodes>
            0 -1 314 9.9281896837055683e-04</internalNodes>
          <leafValues>
            -8.7759986519813538e-02 5.4869359731674194e-01</leafValues></_>
        <_>
          <internalNodes>
            0 -1 166 -6.0716299340128899e-03</internalNodes>
          <leafValues>
            6.4092910289764404e-01 -7.4441775679588318e-02</leafValues></_>
        <_>
          <internalNodes>
            0 -1 133 1.7193354666233063e-02</internalNodes>
          <leafValues>
            8.8306739926338196e-02 -6.4475440979003906e-01</leafValues></_>
        <_>
          <internalNodes>
            0 -1 114 6.8713538348674774e-02</internalNodes>
          <leafValues>
            -9.8816052079200745e-02 5.9557592868804932e-01</leafValues></_>
        <_>
          <internalNodes>
            0 -1 258 -5.0612185150384903e-02</internalNodes>
          <leafValues>
            2.2118802368640900e-01 -2.8636047244071960e-01</leafValues></_>
        <_>
          <internalNodes>
            0 -1 301 -1.4320251531898975e-02</internalNodes>
          <leafValues>
            5.3154891729354858e-01 -1.0690737515687943e-01</leafValues></_>
        <_>
          <internalNodes>
            0 -1 335 -9.0559059754014015e-03</internalNodes>
          <leafValues>
            -7.6665526628494263e-01 8.3355091512203217e-02</leafValues></_>
        <_>
          <internalNodes>
            0 -1 340 3.5903468960896134e-04</internalNodes>
          <leafValues>
            -1.6965314745903015e-01 3.5833621025085449e-01</leafValues></_>
        <_>
          <internalNodes>
            0 -1 394 2.1606287918984890e-03</internalNodes>
          <leafValues>
            -6.1296787112951279e-02 7.8469818830490112e-01</leafValues></_>
        <_>
          <internalNodes>
            0 -1 259 1.0719343554228544e-03</internalNodes>
          <leafValues>
            -8.6397185921669006e-02 5.7938486337661743e-01</leafValues></_>
        <_>
          <internalNodes>
            0 -1 36 2.7141510508954525e-03</internalNodes>
          <leafValues>
            7.6711662113666534e-02 -7.8895264863967896e-01</leafValues></_>
        <_>
          <internalNodes>
            0 -1 568 -1.6267677769064903e-02</internalNodes>
          <leafValues>
            6.7864274978637695e-01 -8.9444451034069061e-02</leafValues></_>
        <_>
          <internalNodes>
            0 -1 435 4.0501188486814499e-03</internalNodes>
          <leafValues>
            -6.4444653689861298e-02 6.5663778781890869e-01</leafValues></_>
        <_>
          <internalNodes>
            0 -1 223 -1.8586602061986923e-02</internalNodes>
          <leafValues>
            -3.3612102270126343e-01 1.6817386448383331e-01</leafValues></_>
        <_>
          <internalNodes>
            0 -1 367 2.3886919952929020e-03</internalNodes>
          <leafValues>
            -7.1585267782211304e-02 7.1012252569198608e-01</leafValues></_>
        <_>
          <internalNodes>
            0 -1 333 -8.2427728921175003e-03</internalNodes>
          <leafValues>
            -7.3212885856628418e-01 8.4080256521701813e-02</leafValues></_>
        <_>
          <internalNodes>
            0 -1 16 3.4698904491961002e-03</internalNodes>
          <leafValues>
            -1.7577941715717316e-01 3.2629314064979553e-01</leafValues></_>
        <_>
          <internalNodes>
            0 -1 11 -4.8466683365404606e-03</internalNodes>
          <leafValues>
            4.6215450763702393e-01 -1.3446980714797974e-01</leafValues></_></weakClassifiers></_>
    <!-- stage 11 -->
    <_>
      <maxWeakCount>31</maxWeakCount>
      <stageThreshold>-8.2173562049865723e-01</stageThreshold>
      <weakClassifiers>
        <_>
          <internalNodes>
            0 -1 325 -4.8999674618244171e-02</internalNodes>
          <leafValues>
            -7.5824177265167236e-01 4.7793659567832947e-01</leafValues></_>
        <_>
          <internalNodes>
            0 -1 500 3.5148144233971834e-03</internalNodes>
          <leafValues>
            2.0581546425819397e-01 -4.5606532692909241e-01</leafValues></_>
        <_>
          <internalNodes>
            0 -1 117 1.7360873520374298e-02</internalNodes>
          <leafValues>
            -1.5029387176036835e-01 5.5380856990814209e-01</leafValues></_>
        <_>
          <internalNodes>
            0 -1 474 1.6401683911681175e-02</internalNodes>
          <leafValues>
            8.3839155733585358e-02 -7.7002501487731934e-01</leafValues></_>
        <_>
          <internalNodes>
            0 -1 354 9.7376562189310789e-04</internalNodes>
          <leafValues>
            -1.2675917148590088e-01 5.3448432683944702e-01</leafValues></_>
        <_>
          <internalNodes>
            0 -1 354 -5.9531908482313156e-04</internalNodes>
          <leafValues>
            4.1478103399276733e-01 -1.5017093718051910e-01</leafValues></_>
        <_>
          <internalNodes>
            0 -1 334 -1.7228558659553528e-02</internalNodes>
          <leafValues>
            -6.0843700170516968e-01 1.0825038701295853e-01</leafValues></_>
        <_>
          <internalNodes>
            0 -1 247 3.1770873814821243e-02</internalNodes>
          <leafValues>
            -1.9199895858764648e-01 3.1801837682723999e-01</leafValues></_>
        <_>
          <internalNodes>
            0 -1 362 -1.9484601914882660e-02</internalNodes>
          <leafValues>
            7.4540120363235474e-01 -8.7487429380416870e-02</leafValues></_>
        <_>
          <internalNodes>
            0 -1 160 1.2678740546107292e-02</internalNodes>
          <leafValues>
            1.1585500091314316e-01 -5.0339639186859131e-01</leafValues></_>
        <_>
          <internalNodes>
            0 -1 163 7.6258322224020958e-04</internalNodes>
          <leafValues>
            -1.2955358624458313e-01 4.2166846990585327e-01</leafValues></_>
        <_>
          <internalNodes>
            0 -1 439 -1.7723839730024338e-02</internalNodes>
          <leafValues>
            2.1674805879592896e-01 -2.3244579136371613e-01</leafValues></_>
        <_>
          <internalNodes>
            0 -1 506 3.5801788326352835e-03</internalNodes>
          <leafValues>
            -6.7342340946197510e-02 7.6704317331314087e-01</leafValues></_>
        <_>
          <internalNodes>
            0 -1 169 1.9055601209402084e-02</internalNodes>
          <leafValues>
            -1.1757783591747284e-01 4.0125513076782227e-01</leafValues></_>
        <_>
          <internalNodes>
            0 -1 430 1.6595984343439341e-03</internalNodes>
          <leafValues>
            -6.9268301129341125e-02 7.1341955661773682e-01</leafValues></_>
        <_>
          <internalNodes>
            0 -1 322 7.6109147630631924e-04</internalNodes>
          <leafValues>
            1.1842992901802063e-01 -4.5961073040962219e-01</leafValues></_>
        <_>
          <internalNodes>
            0 -1 528 3.3200900070369244e-03</internalNodes>
          <leafValues>
            9.1918304562568665e-02 -5.3596019744873047e-01</leafValues></_>
        <_>
          <internalNodes>
            0 -1 428 5.8935099514201283e-04</internalNodes>
          <leafValues>
            -1.4539830386638641e-01 3.8935086131095886e-01</leafValues></_>
        <_>
          <internalNodes>
            0 -1 119 1.8850559368729591e-02</internalNodes>
          <leafValues>
            -6.5206982195377350e-02 7.1888792514801025e-01</leafValues></_>
        <_>
          <internalNodes>
            0 -1 102 -9.3949791043996811e-03</internalNodes>
          <leafValues>
            -5.7428938150405884e-01 1.0538541525602341e-01</leafValues></_>
        <_>
          <internalNodes>
            0 -1 514 -1.2891795486211777e-03</internalNodes>
          <leafValues>
            -3.3123096823692322e-01 1.6653601825237274e-01</leafValues></_>
        <_>
          <internalNodes>
            0 -1 571 -3.2325242646038532e-03</internalNodes>
          <leafValues>
            4.3215754628181458e-01 -1.2189123034477234e-01</leafValues></_>
        <_>
          <internalNodes>
            0 -1 337 -1.0249274782836437e-02</internalNodes>
          <leafValues>
            -5.2945923805236816e-01 9.9542021751403809e-02</leafValues></_>
        <_>
          <internalNodes>
            0 -1 371 1.1060321703553200e-02</internalNodes>
          <leafValues>
            7.8314386308193207e-02 -6.1138218641281128e-01</leafValues></_>
        <_>
          <internalNodes>
            0 -1 394 -1.0048182448372245e-03</internalNodes>
          <leafValues>
            5.2328467369079590e-01 -1.0571147501468658e-01</leafValues></_>
        <_>
          <internalNodes>
            0 -1 70 1.8210177076980472e-03</internalNodes>
          <leafValues>
            -1.3757333159446716e-01 3.5004141926765442e-01</leafValues></_>
        <_>
          <internalNodes>
            0 -1 394 1.9869478419423103e-03</internalNodes>
          <leafValues>
            -7.7454298734664917e-02 6.7637300491333008e-01</leafValues></_>
        <_>
          <internalNodes>
            0 -1 364 -1.9621052779257298e-03</internalNodes>
          <leafValues>
            -3.1666252017021179e-01 1.5862031280994415e-01</leafValues></_>
        <_>
          <internalNodes>
            0 -1 76 4.8938444815576077e-03</internalNodes>
          <leafValues>
            -9.5317125320434570e-02 4.7369825839996338e-01</leafValues></_>
        <_>
          <internalNodes>
            0 -1 5 1.9052211428061128e-03</internalNodes>
          <leafValues>
            8.4502793848514557e-02 -6.4156299829483032e-01</leafValues></_>
        <_>
          <internalNodes>
            0 -1 234 9.1033650096505880e-04</internalNodes>
          <leafValues>
            -1.2711752951145172e-01 4.2824226617813110e-01</leafValues></_></weakClassifiers></_>
    <!-- stage 12 -->
    <_>
      <maxWeakCount>40</maxWeakCount>
      <stageThreshold>-6.8661451339721680e-01</stageThreshold>
      <weakClassifiers>
        <_>
          <internalNodes>
            0 -1 487 2.9607027769088745e-02</internalNodes>
          <leafValues>
            1.8318966031074524e-01 6.8652850389480591e-01</leafValues></_>
        <_>
          <internalNodes>
            0 -1 92 2.8850533068180084e-02</internalNodes>
          <leafValues>
            -7.1026615798473358e-02 4.9747422337532043e-01</leafValues></_>
        <_>
          <internalNodes>
            0 -1 121 2.9895594343543053e-02</internalNodes>
          <leafValues>
            -1.3560295104980469e-01 5.7335931062698364e-01</leafValues></_>
        <_>
          <internalNodes>
            0 -1 417 -1.9439991563558578e-02</internalNodes>
          <leafValues>
            -8.6505985260009766e-01 8.3656080067157745e-02</leafValues></_>
        <_>
          <internalNodes>
            0 -1 184 -9.5216073095798492e-03</internalNodes>
          <leafValues>
            1.6865345835685730e-01 -2.6871907711029053e-01</leafValues></_>
        <_>
          <internalNodes>
            0 -1 77 3.0651196837425232e-02</internalNodes>
          <leafValues>
            8.9583128690719604e-02 -5.7555687427520752e-01</leafValues></_>
        <_>
          <internalNodes>
            0 -1 419 -7.3808681918308139e-04</internalNodes>
          <leafValues>
            4.3732032179832458e-01 -1.1073767393827438e-01</leafValues></_>
        <_>
          <internalNodes>
            0 -1 579 -4.9066571518778801e-03</internalNodes>
          <leafValues>
            4.3855014443397522e-01 -9.0244874358177185e-02</leafValues></_>
        <_>
          <internalNodes>
            0 -1 191 6.8222015397623181e-04</internalNodes>
          <leafValues>
            -1.2157751619815826e-01 3.8653236627578735e-01</leafValues></_>
        <_>
          <internalNodes>
            0 -1 407 -2.6823088410310447e-04</internalNodes>
          <leafValues>
            -3.0881997942924500e-01 1.5113042294979095e-01</leafValues></_>
        <_>
          <internalNodes>
            0 -1 249 7.1115312166512012e-03</internalNodes>
          <leafValues>
            -5.0344400107860565e-02 9.6069973707199097e-01</leafValues></_>
        <_>
          <internalNodes>
            0 -1 125 -6.0945730656385422e-02</internalNodes>
          <leafValues>
            -4.6331590414047241e-01 1.0616909712553024e-01</leafValues></_>
        <_>
          <internalNodes>
            0 -1 245 -5.6213270872831345e-03</internalNodes>
          <leafValues>
            3.2134968042373657e-01 -1.5280511975288391e-01</leafValues></_>
        <_>
          <internalNodes>
            0 -1 369 -5.1556244492530823e-02</internalNodes>
          <leafValues>
            -7.2031253576278687e-01 6.3510715961456299e-02</leafValues></_>
        <_>
          <internalNodes>
            0 -1 249 -6.1261123046278954e-03</internalNodes>
          <leafValues>
            8.2475680112838745e-01 -6.6030099987983704e-02</leafValues></_>
        <_>
          <internalNodes>
            0 -1 254 1.4576749876141548e-02</internalNodes>
          <leafValues>
            9.2101365327835083e-02 -5.3497415781021118e-01</leafValues></_>
        <_>
          <internalNodes>
            0 -1 451 -8.7902252562344074e-04</internalNodes>
          <leafValues>
            3.9989596605300903e-01 -1.1948884278535843e-01</leafValues></_>
        <_>
          <internalNodes>
            0 -1 305 3.5438842605799437e-03</internalNodes>
          <leafValues>
            1.2363573163747787e-01 -4.1097217798233032e-01</leafValues></_>
        <_>
          <internalNodes>
            0 -1 316 -5.6963309179991484e-04</internalNodes>
          <leafValues>
            3.1289735436439514e-01 -1.4122693240642548e-01</leafValues></_>
        <_>
          <internalNodes>
            0 -1 502 -2.1426323801279068e-02</internalNodes>
          <leafValues>
            -4.3395814299583435e-01 1.0246149450540543e-01</leafValues></_>
        <_>
          <internalNodes>
            0 -1 559 2.7870903722941875e-03</internalNodes>
          <leafValues>
            -1.5729402005672455e-01 2.7895417809486389e-01</leafValues></_>
        <_>
          <internalNodes>
            0 -1 0 8.3711819024756551e-04</internalNodes>
          <leafValues>
            9.0585358440876007e-02 -4.8421299457550049e-01</leafValues></_>
        <_>
          <internalNodes>
            0 -1 165 -3.9589488878846169e-03</internalNodes>
          <leafValues>
            3.2167389988899231e-01 -1.3488636910915375e-01</leafValues></_>
        <_>
          <internalNodes>
            0 -1 457 1.7487921286374331e-03</internalNodes>
          <leafValues>
            -8.9017018675804138e-02 4.9362385272979736e-01</leafValues></_>
        <_>
          <internalNodes>
            0 -1 475 5.3814225830137730e-03</internalNodes>
          <leafValues>
            9.6358604729175568e-02 -5.0553482770919800e-01</leafValues></_>
        <_>
          <internalNodes>
            0 -1 463 -1.3864780776202679e-03</internalNodes>
          <leafValues>
            4.8295864462852478e-01 -9.2978902161121368e-02</leafValues></_>
        <_>
          <internalNodes>
            0 -1 468 -9.3608889728784561e-03</internalNodes>
          <leafValues>
            3.7746772170066833e-01 -1.2428002804517746e-01</leafValues></_>
        <_>
          <internalNodes>
            0 -1 496 9.7836402710527182e-04</internalNodes>
          <leafValues>
            1.5676869451999664e-01 -2.9532161355018616e-01</leafValues></_>
        <_>
          <internalNodes>
            0 -1 421 -1.8011838197708130e-02</internalNodes>
          <leafValues>
            -7.2252982854843140e-01 5.9165313839912415e-02</leafValues></_>
        <_>
          <internalNodes>
            0 -1 396 5.9364638291299343e-03</internalNodes>
          <leafValues>
            -1.0551589727401733e-01 4.3673601746559143e-01</leafValues></_>
        <_>
          <internalNodes>
            0 -1 505 7.1261366829276085e-03</internalNodes>
          <leafValues>
            1.1826558411121368e-01 -4.1023156046867371e-01</leafValues></_>
        <_>
          <internalNodes>
            0 -1 83 7.2541153058409691e-03</internalNodes>
          <leafValues>
            -8.9703895151615143e-02 5.4306405782699585e-01</leafValues></_>
        <_>
          <internalNodes>
            0 -1 382 6.9181428989395499e-04</internalNodes>
          <leafValues>
            -1.0294424742460251e-01 4.0041199326515198e-01</leafValues></_>
        <_>
          <internalNodes>
            0 -1 111 3.7624612450599670e-02</internalNodes>
          <leafValues>
            -1.8236023187637329e-01 2.6763924956321716e-01</leafValues></_>
        <_>
          <internalNodes>
            0 -1 523 -6.1514219269156456e-03</internalNodes>
          <leafValues>
            3.1779575347900391e-01 -1.5496581792831421e-01</leafValues></_>
        <_>
          <internalNodes>
            0 -1 27 1.5221862122416496e-03</internalNodes>
          <leafValues>
            -9.0883970260620117e-02 4.8360756039619446e-01</leafValues></_>
        <_>
          <internalNodes>
            0 -1 420 -7.4887531809508801e-03</internalNodes>
          <leafValues>
            -4.9039554595947266e-01 9.4823196530342102e-02</leafValues></_>
        <_>
          <internalNodes>
            0 -1 228 6.8944138474762440e-03</internalNodes>
          <leafValues>
            7.0897854864597321e-02 -6.5110945701599121e-01</leafValues></_>
        <_>
          <internalNodes>
            0 -1 545 1.2443485856056213e-01</internalNodes>
          <leafValues>
            6.0602199286222458e-02 -6.9508522748947144e-01</leafValues></_>
        <_>
          <internalNodes>
            0 -1 390 -1.3035566080361605e-03</internalNodes>
          <leafValues>
            4.8029470443725586e-01 -1.0883008688688278e-01</leafValues></_></weakClassifiers></_>
    <!-- stage 13 -->
    <_>
      <maxWeakCount>38</maxWeakCount>
      <stageThreshold>-7.9003643989562988e-01</stageThreshold>
      <weakClassifiers>
        <_>
          <internalNodes>
            0 -1 146 7.3438517749309540e-02</internalNodes>
          <leafValues>
            4.8100450634956360e-01 -3.1972789764404297e-01</leafValues></_>
        <_>
          <internalNodes>
            0 -1 219 3.0542772263288498e-02</internalNodes>
          <leafValues>
            -1.2015679478645325e-01 4.9116438627243042e-01</leafValues></_>
        <_>
          <internalNodes>
            0 -1 378 3.0068419873714447e-02</internalNodes>
          <leafValues>
            -3.4384524822235107e-01 1.9538262486457825e-01</leafValues></_>
        <_>
          <internalNodes>
            0 -1 1 5.4665580391883850e-03</internalNodes>
          <leafValues>
            -8.1258498132228851e-02 7.0385634899139404e-01</leafValues></_>
        <_>
          <internalNodes>
            0 -1 213 8.2184042548760772e-04</internalNodes>
          <leafValues>
            -1.2930083274841309e-01 4.1965919733047485e-01</leafValues></_>
        <_>
          <internalNodes>
            0 -1 318 -9.1687130043283105e-04</internalNodes>
          <leafValues>
            4.6704456210136414e-01 -1.1545035243034363e-01</leafValues></_>
        <_>
          <internalNodes>
            0 -1 415 4.5167608186602592e-03</internalNodes>
          <leafValues>
            1.0354117304086685e-01 -4.4668936729431152e-01</leafValues></_>
        <_>
          <internalNodes>
            0 -1 147 1.1979694478213787e-02</internalNodes>
          <leafValues>
            -1.2230411916971207e-01 3.6274623870849609e-01</leafValues></_>
        <_>
          <internalNodes>
            0 -1 312 -1.2207109481096268e-02</internalNodes>
          <leafValues>
            -7.7182716131210327e-01 5.4693218320608139e-02</leafValues></_>
        <_>
          <internalNodes>
            0 -1 348 4.1407189564779401e-04</internalNodes>
          <leafValues>
            -1.5302696824073792e-01 3.2972952723503113e-01</leafValues></_>
        <_>
          <internalNodes>
            0 -1 320 -1.1631829664111137e-02</internalNodes>
          <leafValues>
            7.8565716743469238e-01 -5.7369913905858994e-02</leafValues></_>
        <_>
          <internalNodes>
            0 -1 469 -9.0377237647771835e-03</internalNodes>
          <leafValues>
            -4.2330637574195862e-01 1.0562992095947266e-01</leafValues></_>
        <_>
          <internalNodes>
            0 -1 180 -4.8749186098575592e-03</internalNodes>
          <leafValues>
            5.5356115102767944e-01 -7.3857583105564117e-02</leafValues></_>
        <_>
          <internalNodes>
            0 -1 208 9.1441522818058729e-04</internalNodes>
          <leafValues>
            -1.1059233546257019e-01 3.6565798521041870e-01</leafValues></_>
        <_>
          <internalNodes>
            0 -1 72 -1.3285567983984947e-03</internalNodes>
          <leafValues>
            -4.2140048742294312e-01 1.0610295832157135e-01</leafValues></_>
        <_>
          <internalNodes>
            0 -1 443 4.3108969926834106e-02</internalNodes>
          <leafValues>
            5.6521579623222351e-02 -7.0071947574615479e-01</leafValues></_>
        <_>
          <internalNodes>
            0 -1 352 7.8667636262252927e-04</internalNodes>
          <leafValues>
            -1.2048467248678207e-01 3.8708084821701050e-01</leafValues></_>
        <_>
          <internalNodes>
            0 -1 398 -1.9234156934544444e-03</internalNodes>
          <leafValues>
            -2.2589385509490967e-01 1.7875076830387115e-01</leafValues></_>
        <_>
          <internalNodes>
            0 -1 261 6.3676573336124420e-03</internalNodes>
          <leafValues>
            5.8148328214883804e-02 -7.6001733541488647e-01</leafValues></_>
        <_>
          <internalNodes>
            0 -1 65 -1.5592398121953011e-02</internalNodes>
          <leafValues>
            3.6284288763999939e-01 -1.3546462357044220e-01</leafValues></_>
        <_>
          <internalNodes>
            0 -1 339 1.1356492526829243e-02</internalNodes>
          <leafValues>
            7.4715286493301392e-02 -6.4316523075103760e-01</leafValues></_>
        <_>
          <internalNodes>
            0 -1 98 -3.3430897165089846e-03</internalNodes>
          <leafValues>
            2.6538017392158508e-01 -1.7001172900199890e-01</leafValues></_>
        <_>
          <internalNodes>
            0 -1 218 3.3593848347663879e-02</internalNodes>
          <leafValues>
            -1.4204713702201843e-01 3.4638050198554993e-01</leafValues></_>
        <_>
          <internalNodes>
            0 -1 386 -1.3711870415136218e-03</internalNodes>
          <leafValues>
            5.0515097379684448e-01 -8.2393705844879150e-02</leafValues></_>
        <_>
          <internalNodes>
            0 -1 260 -2.6142612099647522e-02</internalNodes>
          <leafValues>
            -7.7502298355102539e-01 6.1790999025106430e-02</leafValues></_>
        <_>
          <internalNodes>
            0 -1 535 -2.2925983648747206e-03</internalNodes>
          <leafValues>
            5.6312394142150879e-01 -8.8461555540561676e-02</leafValues></_>
        <_>
          <internalNodes>
            0 -1 237 -1.1865360429510474e-03</internalNodes>
          <leafValues>
            4.6895742416381836e-01 -8.2986742258071899e-02</leafValues></_>
        <_>
          <internalNodes>
            0 -1 304 6.0856509953737259e-03</internalNodes>
          <leafValues>
            1.0452891886234283e-01 -4.5592680573463440e-01</leafValues></_>
        <_>
          <internalNodes>
            0 -1 557 -8.4373261779546738e-04</internalNodes>
          <leafValues>
            -3.9083829522132874e-01 1.0935250669717789e-01</leafValues></_>
        <_>
          <internalNodes>
            0 -1 381 -1.6913738101720810e-02</internalNodes>
          <leafValues>
            -6.1570131778717041e-01 6.9956839084625244e-02</leafValues></_>
        <_>
          <internalNodes>
            0 -1 315 -7.3508510831743479e-04</internalNodes>
          <leafValues>
            3.2152631878852844e-01 -1.4391510188579559e-01</leafValues></_>
        <_>
          <internalNodes>
            0 -1 465 -9.3936361372470856e-03</internalNodes>
          <leafValues>
            5.1932072639465332e-01 -8.4192067384719849e-02</leafValues></_>
        <_>
          <internalNodes>
            0 -1 437 -1.9027732312679291e-02</internalNodes>
          <leafValues>
            1.1727601289749146e-01 -4.0403699874877930e-01</leafValues></_>
        <_>
          <internalNodes>
            0 -1 96 1.1670159175992012e-02</internalNodes>
          <leafValues>
            -8.4075674414634705e-02 6.0985785722732544e-01</leafValues></_>
        <_>
          <internalNodes>
            0 -1 558 -1.4535891823470592e-03</internalNodes>
          <leafValues>
            4.8188814520835876e-01 -8.1285417079925537e-02</leafValues></_>
        <_>
          <internalNodes>
            0 -1 150 -5.6119691580533981e-03</internalNodes>
          <leafValues>
            3.9523386955261230e-01 -1.0457686334848404e-01</leafValues></_>
        <_>
          <internalNodes>
            0 -1 375 -1.0750593617558479e-02</internalNodes>
          <leafValues>
            -6.2080460786819458e-01 7.5267113745212555e-02</leafValues></_>
        <_>
          <internalNodes>
            0 -1 186 -1.4949791133403778e-02</internalNodes>
          <leafValues>
            -7.3487454652786255e-01 5.6446027010679245e-02</leafValues></_></weakClassifiers></_>
    <!-- stage 14 -->
    <_>
      <maxWeakCount>42</maxWeakCount>
      <stageThreshold>-6.2708479166030884e-01</stageThreshold>
      <weakClassifiers>
        <_>
          <internalNodes>
            0 -1 471 -7.6218293979763985e-03</internalNodes>
          <leafValues>
            5.8293837308883667e-01 1.3178294897079468e-01</leafValues></_>
        <_>
          <internalNodes>
            0 -1 176 1.0307042300701141e-01</internalNodes>
          <leafValues>
            -7.2815850377082825e-02 5.3549408912658691e-01</leafValues></_>
        <_>
          <internalNodes>
            0 -1 562 2.8434213250875473e-02</internalNodes>
          <leafValues>
            -1.5045665204524994e-01 3.3314627408981323e-01</leafValues></_>
        <_>
          <internalNodes>
            0 -1 233 -7.6034187804907560e-04</internalNodes>
          <leafValues>
            4.0833970904350281e-01 -1.4154523611068726e-01</leafValues></_>
        <_>
          <internalNodes>
            0 -1 153 -1.0956187732517719e-02</internalNodes>
          <leafValues>
            1.5800292789936066e-01 -2.6540049910545349e-01</leafValues></_>
        <_>
          <internalNodes>
            0 -1 274 -9.8185753449797630e-04</internalNodes>
          <leafValues>
            3.4324407577514648e-01 -1.3138136267662048e-01</leafValues></_>
        <_>
          <internalNodes>
            0 -1 42 -1.2456553988158703e-02</internalNodes>
          <leafValues>
            3.1068953871726990e-01 -1.4218550920486450e-01</leafValues></_>
        <_>
          <internalNodes>
            0 -1 250 -2.0381744951009750e-02</internalNodes>
          <leafValues>
            5.7001030445098877e-01 -7.8996069729328156e-02</leafValues></_>
        <_>
          <internalNodes>
            0 -1 515 7.0627918466925621e-04</internalNodes>
          <leafValues>
            -1.0527784377336502e-01 3.6974832415580750e-01</leafValues></_>
        <_>
          <internalNodes>
            0 -1 108 1.2553207576274872e-02</internalNodes>
          <leafValues>
            -1.6206626594066620e-01 2.7943223714828491e-01</leafValues></_>
        <_>
          <internalNodes>
            0 -1 355 4.5659122988581657e-03</internalNodes>
          <leafValues>
            -1.2275025248527527e-01 3.5294190049171448e-01</leafValues></_>
        <_>
          <internalNodes>
            0 -1 194 -2.3280642926692963e-02</internalNodes>
          <leafValues>
            3.0459934473037720e-01 -1.3118234276771545e-01</leafValues></_>
        <_>
          <internalNodes>
            0 -1 68 8.0855126725509763e-04</internalNodes>
          <leafValues>
            1.1687625199556351e-01 -3.5368290543556213e-01</leafValues></_>
        <_>
          <internalNodes>
            0 -1 340 -1.3833107659593225e-03</internalNodes>
          <leafValues>
            5.6321495771408081e-01 -7.6913915574550629e-02</leafValues></_>
        <_>
          <internalNodes>
            0 -1 80 -2.1357077639549971e-03</internalNodes>
          <leafValues>
            4.5658284425735474e-01 -8.6966015398502350e-02</leafValues></_>
        <_>
          <internalNodes>
            0 -1 477 1.5352115966379642e-02</internalNodes>
          <leafValues>
            8.2640774548053741e-02 -6.5052425861358643e-01</leafValues></_>
        <_>
          <internalNodes>
            0 -1 232 -8.2390184979885817e-04</internalNodes>
          <leafValues>
            3.8856682181358337e-01 -1.0470520704984665e-01</leafValues></_>
        <_>
          <internalNodes>
            0 -1 544 -1.1815922334790230e-03</internalNodes>
          <leafValues>
            4.8314663767814636e-01 -7.9303808510303497e-02</leafValues></_>
        <_>
          <internalNodes>
            0 -1 226 4.5324693201109767e-04</internalNodes>
          <leafValues>
            1.4364783465862274e-01 -3.1452977657318115e-01</leafValues></_>
        <_>
          <internalNodes>
            0 -1 330 4.9882657825946808e-02</internalNodes>
          <leafValues>
            -1.4713585376739502e-01 2.8972771763801575e-01</leafValues></_>
        <_>
          <internalNodes>
            0 -1 472 -1.2266279757022858e-01</internalNodes>
          <leafValues>
            -4.7942528128623962e-01 9.5853663980960846e-02</leafValues></_>
        <_>
          <internalNodes>
            0 -1 532 4.8248697072267532e-02</internalNodes>
          <leafValues>
            9.7058959305286407e-02 -4.2779031395912170e-01</leafValues></_>
        <_>
          <internalNodes>
            0 -1 372 -1.2673798017203808e-02</internalNodes>
          <leafValues>
            2.5343850255012512e-01 -1.8008355796337128e-01</leafValues></_>
        <_>
          <internalNodes>
            0 -1 564 -3.4017646685242653e-03</internalNodes>
          <leafValues>
            3.1682422757148743e-01 -1.3034997880458832e-01</leafValues></_>
        <_>
          <internalNodes>
            0 -1 480 -2.4887412786483765e-02</internalNodes>
          <leafValues>
            -7.3552340269088745e-01 6.0231581330299377e-02</leafValues></_>
        <_>
          <internalNodes>
            0 -1 197 5.8334674686193466e-02</internalNodes>
          <leafValues>
            -1.3255238533020020e-01 3.3726283907890320e-01</leafValues></_>
        <_>
          <internalNodes>
            0 -1 555 2.5942982174456120e-03</internalNodes>
          <leafValues>
            -7.7243722975254059e-02 5.7836657762527466e-01</leafValues></_>
        <_>
          <internalNodes>
            0 -1 41 1.7732166452333331e-04</internalNodes>
          <leafValues>
            1.8292796611785889e-01 -2.0914754271507263e-01</leafValues></_>
        <_>
          <internalNodes>
            0 -1 48 5.8865686878561974e-03</internalNodes>
          <leafValues>
            -5.3581103682518005e-02 7.4256479740142822e-01</leafValues></_>
        <_>
          <internalNodes>
            0 -1 265 8.6510978871956468e-04</internalNodes>
          <leafValues>
            -9.0455405414104462e-02 4.0476331114768982e-01</leafValues></_>
        <_>
          <internalNodes>
            0 -1 0 7.5652357190847397e-04</internalNodes>
          <leafValues>
            9.6756681799888611e-02 -4.8581090569496155e-01</leafValues></_>
        <_>
          <internalNodes>
            0 -1 516 1.2400891631841660e-02</internalNodes>
          <leafValues>
            4.2691964656114578e-02 -8.7868076562881470e-01</leafValues></_>
        <_>
          <internalNodes>
            0 -1 10 -3.1474620103836060e-01</internalNodes>
          <leafValues>
            -8.1665641069412231e-01 4.2840514332056046e-02</leafValues></_>
        <_>
          <internalNodes>
            0 -1 267 8.8278949260711670e-03</internalNodes>
          <leafValues>
            7.7126756310462952e-02 -5.0250452756881714e-01</leafValues></_>
        <_>
          <internalNodes>
            0 -1 306 -6.3560353592038155e-03</internalNodes>
          <leafValues>
            -7.0364642143249512e-01 5.9443131089210510e-02</leafValues></_>
        <_>
          <internalNodes>
            0 -1 388 5.8185390662401915e-04</internalNodes>
          <leafValues>
            -1.2468001991510391e-01 3.3294418454170227e-01</leafValues></_>
        <_>
          <internalNodes>
            0 -1 536 -5.9703551232814789e-03</internalNodes>
          <leafValues>
            5.4475039243698120e-01 -7.0273190736770630e-02</leafValues></_>
        <_>
          <internalNodes>
            0 -1 488 -1.0706257307901978e-04</internalNodes>
          <leafValues>
            -2.7150535583496094e-01 1.5678465366363525e-01</leafValues></_>
        <_>
          <internalNodes>
            0 -1 454 -6.6698971204459667e-04</internalNodes>
          <leafValues>
            3.6944565176963806e-01 -1.1398061364889145e-01</leafValues></_>
        <_>
          <internalNodes>
            0 -1 100 -5.4438047111034393e-02</internalNodes>
          <leafValues>
            -8.2538801431655884e-01 5.5905509740114212e-02</leafValues></_>
        <_>
          <internalNodes>
            0 -1 90 3.6619724705815315e-03</internalNodes>
          <leafValues>
            4.4421751052141190e-02 -7.7054631710052490e-01</leafValues></_>
        <_>
          <internalNodes>
            0 -1 74 1.2010394781827927e-01</internalNodes>
          <leafValues>
            1.3796791434288025e-01 -2.8201293945312500e-01</leafValues></_></weakClassifiers></_>
    <!-- stage 15 -->
    <_>
      <maxWeakCount>46</maxWeakCount>
      <stageThreshold>-8.1005752086639404e-01</stageThreshold>
      <weakClassifiers>
        <_>
          <internalNodes>
            0 -1 344 9.3859564512968063e-03</internalNodes>
          <leafValues>
            4.7866052389144897e-01 -1.6384181380271912e-01</leafValues></_>
        <_>
          <internalNodes>
            0 -1 139 1.5891661867499352e-02</internalNodes>
          <leafValues>
            -2.0564070343971252e-01 2.6152193546295166e-01</leafValues></_>
        <_>
          <internalNodes>
            0 -1 271 -4.8864219570532441e-04</internalNodes>
          <leafValues>
            3.9679950475692749e-01 -1.3506053388118744e-01</leafValues></_>
        <_>
          <internalNodes>
            0 -1 400 -5.2602682262659073e-04</internalNodes>
          <leafValues>
            -3.0207258462905884e-01 1.6438691318035126e-01</leafValues></_>
        <_>
          <internalNodes>
            0 -1 374 -5.0190580077469349e-04</internalNodes>
          <leafValues>
            3.1005945801734924e-01 -1.9162890315055847e-01</leafValues></_>
        <_>
          <internalNodes>
            0 -1 542 4.2679496109485626e-03</internalNodes>
          <leafValues>
            -2.5345489382743835e-01 1.9801922142505646e-01</leafValues></_>
        <_>
          <internalNodes>
            0 -1 110 -8.8064428418874741e-03</internalNodes>
          <leafValues>
            5.2647066116333008e-01 -1.1552732437849045e-01</leafValues></_>
        <_>
          <internalNodes>
            0 -1 130 1.4610406011343002e-02</internalNodes>
          <leafValues>
            9.8883382976055145e-02 -4.6785092353820801e-01</leafValues></_>
        <_>
          <internalNodes>
            0 -1 271 5.1770696882158518e-04</internalNodes>
          <leafValues>
            -1.4539365470409393e-01 3.1041178107261658e-01</leafValues></_>
        <_>
          <internalNodes>
            0 -1 105 -5.0067650154232979e-03</internalNodes>
          <leafValues>
            1.3153308629989624e-01 -3.7685471773147583e-01</leafValues></_>
        <_>
          <internalNodes>
            0 -1 408 -9.6757686696946621e-04</internalNodes>
          <leafValues>
            3.5859608650207520e-01 -1.1974021792411804e-01</leafValues></_>
        <_>
          <internalNodes>
            0 -1 391 -4.7392089618369937e-04</internalNodes>
          <leafValues>
            3.5605922341346741e-01 -1.3038417696952820e-01</leafValues></_>
        <_>
          <internalNodes>
            0 -1 67 -2.0107305608689785e-03</internalNodes>
          <leafValues>
            -5.1390564441680908e-01 8.4826834499835968e-02</leafValues></_>
        <_>
          <internalNodes>
            0 -1 459 -7.8637863043695688e-04</internalNodes>
          <leafValues>
            4.0293985605239868e-01 -1.0585609078407288e-01</leafValues></_>
        <_>
          <internalNodes>
            0 -1 347 2.0061384886503220e-02</internalNodes>
          <leafValues>
            6.5462686121463776e-02 -6.6911423206329346e-01</leafValues></_>
        <_>
          <internalNodes>
            0 -1 240 -2.1974366158246994e-02</internalNodes>
          <leafValues>
            3.4198766946792603e-01 -1.4420494437217712e-01</leafValues></_>
        <_>
          <internalNodes>
            0 -1 379 -4.0591415017843246e-04</internalNodes>
          <leafValues>
            2.9509094357490540e-01 -1.3723607361316681e-01</leafValues></_>
        <_>
          <internalNodes>
            0 -1 159 -1.9530370831489563e-02</internalNodes>
          <leafValues>
            -4.8288655281066895e-01 9.7820229828357697e-02</leafValues></_>
        <_>
          <internalNodes>
            0 -1 578 -1.7005511326715350e-03</internalNodes>
          <leafValues>
            3.3626937866210938e-01 -1.2957952916622162e-01</leafValues></_>
        <_>
          <internalNodes>
            0 -1 432 1.5686036786064506e-03</internalNodes>
          <leafValues>
            -8.8596642017364502e-02 4.8664683103561401e-01</leafValues></_>
        <_>
          <internalNodes>
            0 -1 20 -2.3194371163845062e-01</internalNodes>
          <leafValues>
            6.6238093376159668e-01 -5.5772706866264343e-02</leafValues></_>
        <_>
          <internalNodes>
            0 -1 221 3.0450057983398438e-01</internalNodes>
          <leafValues>
            7.7904127538204193e-02 -6.0294610261917114e-01</leafValues></_>
        <_>
          <internalNodes>
            0 -1 296 -1.6340154409408569e-01</internalNodes>
          <leafValues>
            -6.6833752393722534e-01 5.6295894086360931e-02</leafValues></_>
        <_>
          <internalNodes>
            0 -1 198 9.8915025591850281e-02</internalNodes>
          <leafValues>
            -5.3016092628240585e-02 8.5011953115463257e-01</leafValues></_>
        <_>
          <internalNodes>
            0 -1 404 -1.5178826637566090e-02</internalNodes>
          <leafValues>
            -5.4156279563903809e-01 8.2753002643585205e-02</leafValues></_>
        <_>
          <internalNodes>
            0 -1 484 -7.1238045347854495e-04</internalNodes>
          <leafValues>
            -2.9503268003463745e-01 1.1795587837696075e-01</leafValues></_>
        <_>
          <internalNodes>
            0 -1 409 -5.2246300037950277e-04</internalNodes>
          <leafValues>
            3.3470541238784790e-01 -1.1539036780595779e-01</leafValues></_>
        <_>
          <internalNodes>
            0 -1 517 7.5075533241033554e-03</internalNodes>
          <leafValues>
            1.3029724359512329e-01 -3.1729719042778015e-01</leafValues></_>
        <_>
          <internalNodes>
            0 -1 363 5.9109490364789963e-02</internalNodes>
          <leafValues>
            -1.4809882640838623e-01 2.7464267611503601e-01</leafValues></_>
        <_>
          <internalNodes>
            0 -1 537 1.3492923974990845e-01</internalNodes>
          <leafValues>
            8.2377970218658447e-02 -4.9708065390586853e-01</leafValues></_>
        <_>
          <internalNodes>
            0 -1 467 -2.2034677676856518e-03</internalNodes>
          <leafValues>
            1.2596639990806580e-01 -3.1338402628898621e-01</leafValues></_>
        <_>
          <internalNodes>
            0 -1 164 8.5446415469050407e-03</internalNodes>
          <leafValues>
            7.0703998208045959e-02 -5.9980392456054688e-01</leafValues></_>
        <_>
          <internalNodes>
            0 -1 434 -4.2388789006508887e-04</internalNodes>
          <leafValues>
            3.3162713050842285e-01 -1.3246418535709381e-01</leafValues></_>
        <_>
          <internalNodes>
            0 -1 163 4.9515633145347238e-04</internalNodes>
