<?xml version="1.0"?>
<opencv_storage>
<stage3>
  <maxWeakCount>26</maxWeakCount>
  <stageThreshold>-8.7400609254837036e-01</stageThreshold>
  <weakClassifiers>
    <_>
      <internalNodes>
        0 -1 253032 1.2355437502264977e-02</internalNodes>
      <leafValues>
        -2.0359280705451965e-01 5.6222546100616455e-01</leafValues></_>
    <_>
      <internalNodes>
        0 -1 4442 -1.8435709178447723e-02</internalNodes>
      <leafValues>
        5.3621774911880493e-01 -2.1853016316890717e-01</leafValues></_>
    <_>
      <internalNodes>
        0 -1 200413 -1.9143618643283844e-02</internalNodes>
      <leafValues>
        2.4501834809780121e-01 -3.5093298554420471e-01</leafValues></_>
    <_>
      <internalNodes>
        0 -1 247261 3.9613202214241028e-02</internalNodes>
      <leafValues>
        -1.4597968757152557e-01 5.8128684759140015e-01</leafValues></_>
    <_>
      <internalNodes>
        0 -1 103494 -6.6073536872863770e-03</internalNodes>
      <leafValues>
        7.4980002641677856e-01 -1.1654682457447052e-01</leafValues></_>
    <_>
      <internalNodes>
        0 -1 155323 9.2917552683502436e-04</internalNodes>
      <leafValues>
        -1.2043166160583496e-01 6.1778503656387329e-01</leafValues></_>
    <_>
      <internalNodes>
        0 -1 166389 -6.3331774435937405e-04</internalNodes>
      <leafValues>
        4.8601657152175903e-01 -1.2900730967521667e-01</leafValues></_>
    <_>
      <internalNodes>
        0 -1 165825 -5.5475288536399603e-04</internalNodes>
      <leafValues>
        4.3553483486175537e-01 -1.4609503746032715e-01</leafValues></_>
    <_>
      <internalNodes>
        0 -1 243534 1.7978377640247345e-02</internalNodes>
      <leafValues>
        -2.3145754635334015e-01 3.3687704801559448e-01</leafValues></_>
    <_>
      <internalNodes>
        0 -1 227365 -2.0630056969821453e-03</internalNodes>
      <leafValues>
        6.7090535163879395e-01 -9.5026858150959015e-02</leafValues></_>
    <_>
      <internalNodes>
        0 -1 183776 4.3679522350430489e-03</internalNodes>
      <leafValues>
        -7.1663811802864075e-02 8.1261909008026123e-01</leafValues></_>
    <_>
      <internalNodes>
        0 -1 199321 -9.4999326393008232e-03</internalNodes>
      <leafValues>
        -5.9614205360412598e-01 1.2766079604625702e-01</leafValues></_>
    <_>
      <internalNodes>
        0 -1 121190 6.2746824696660042e-03</internalNodes>
      <leafValues>
        9.8069019615650177e-02 -6.2383425235748291e-01</leafValues></_>
    <_>
      <internalNodes>
        0 -1 90609 1.9514467567205429e-03</internalNodes>
      <leafValues>
        -9.6704751253128052e-02 7.8992950916290283e-01</leafValues></_>
    <_>
      <internalNodes>
        0 -1 85942 -3.9904797449707985e-03</internalNodes>
      <leafValues>
        5.5678665637969971e-01 -1.1280594021081924e-01</leafValues></_>
    <_>
      <internalNodes>
        0 -1 91484 1.9159481162205338e-03</internalNodes>
      <leafValues>
        -8.6028359830379486e-02 6.4922624826431274e-01</leafValues></_>
    <_>
      <internalNodes>
        0 -1 9511 1.3760212063789368e-01</internalNodes>
      <leafValues>
        1.3713221251964569e-01 -5.1032787561416626e-01</leafValues></_>
    <_>
      <internalNodes>
        0 -1 198918 -1.4038067311048508e-02</internalNodes>
      <leafValues>
        -5.1369261741638184e-01 1.2304388731718063e-01</leafValues></_>
    <_>
      <internalNodes>
        0 -1 32766 -4.4451847672462463e-02</internalNodes>
      <leafValues>
        5.4091727733612061e-01 -1.2348431348800659e-01</leafValues></_>
    <_>
      <internalNodes>
        0 -1 238675 -1.2349544558674097e-03</internalNodes>
      <leafValues>
        6.8906247615814209e-01 -8.4570668637752533e-02</leafValues></_>
    <_>
      <internalNodes>
        0 -1 199512 -8.8614849373698235e-03</internalNodes>
      <leafValues>
        -8.3302885293960571e-01 8.9419975876808167e-02</leafValues></_>
    <_>
      <internalNodes>
        0 -1 189671 -9.9095776677131653e-03</internalNodes>
      <leafValues>
        -6.2017267942428589e-01 9.3163393437862396e-02</leafValues></_>
    <_>
      <internalNodes>
        0 -1 201092 6.7391234915703535e-04</internalNodes>
      <leafValues>
        -1.5079011023044586e-01 5.1864665746688843e-01</leafValues></_>
    <_>
      <internalNodes>
        0 -1 154996 -2.5590546429157257e-03</internalNodes>
      <leafValues>
        7.2926449775695801e-01 -8.1393577158451080e-02</leafValues></_>
    <_>
      <internalNodes>
        0 -1 97711 8.1867994740605354e-03</internalNodes>
      <leafValues>
        -8.6461506783962250e-02 6.1681771278381348e-01</leafValues></_>
    <_>
      <internalNodes>
        0 -1 161309 -8.3570939023047686e-04</internalNodes>
      <leafValues>
        3.8628128170967102e-01 -1.5637952089309692e-01</leafValues></_></weakClassifiers></stage3>
</opencv_storage>
