<?xml version="1.0"?>
<opencv_storage>
<stage18>
  <maxWeakCount>34</maxWeakCount>
  <stageThreshold>-7.7983212471008301e-01</stageThreshold>
  <weakClassifiers>
    <_>
      <internalNodes>
        0 -1 199766 2.2845668718218803e-02</internalNodes>
      <leafValues>
        -3.6144576966762543e-02 5.5642020702362061e-01</leafValues></_>
    <_>
      <internalNodes>
        0 -1 156754 -1.7981573473662138e-03</internalNodes>
      <leafValues>
        -4.7035652399063110e-01 2.0501312613487244e-01</leafValues></_>
    <_>
      <internalNodes>
        0 -1 29306 2.7832625433802605e-02</internalNodes>
      <leafValues>
        -1.4521358907222748e-01 5.4323554039001465e-01</leafValues></_>
    <_>
      <internalNodes>
        0 -1 142622 -5.6056827306747437e-03</internalNodes>
      <leafValues>
        5.8587819337844849e-01 -1.1911884695291519e-01</leafValues></_>
    <_>
      <internalNodes>
        0 -1 142536 7.7006639912724495e-03</internalNodes>
      <leafValues>
        -1.5133680403232574e-01 4.5768776535987854e-01</leafValues></_>
    <_>
      <internalNodes>
        0 -1 14281 2.4042980745434761e-02</internalNodes>
      <leafValues>
        1.6445527970790863e-01 -4.1381487250328064e-01</leafValues></_>
    <_>
      <internalNodes>
        0 -1 178322 5.4920115508139133e-04</internalNodes>
      <leafValues>
        -1.2705054879188538e-01 4.2360696196556091e-01</leafValues></_>
    <_>
      <internalNodes>
        0 -1 16495 -3.9194926619529724e-02</internalNodes>
      <leafValues>
        8.4933996200561523e-01 -7.7652521431446075e-02</leafValues></_>
    <_>
      <internalNodes>
        0 -1 47083 -2.7822017669677734e-02</internalNodes>
      <leafValues>
        -7.4917775392532349e-01 9.1378465294837952e-02</leafValues></_>
    <_>
      <internalNodes>
        0 -1 71801 -2.7681305073201656e-03</internalNodes>
      <leafValues>
        2.4448254704475403e-01 -2.2857302427291870e-01</leafValues></_>
    <_>
      <internalNodes>
        0 -1 49588 -1.4820480719208717e-02</internalNodes>
      <leafValues>
        4.3590143322944641e-01 -1.1096648871898651e-01</leafValues></_>
    <_>
      <internalNodes>
        0 -1 17338 6.5282965078949928e-03</internalNodes>
      <leafValues>
        -1.2431549280881882e-01 4.0229687094688416e-01</leafValues></_>
    <_>
      <internalNodes>
        0 -1 204036 3.1406851485371590e-03</internalNodes>
      <leafValues>
        -8.1571109592914581e-02 6.2710833549499512e-01</leafValues></_>
    <_>
      <internalNodes>
        0 -1 261361 2.4460111744701862e-03</internalNodes>
      <leafValues>
        -1.2814283370971680e-01 4.1174277663230896e-01</leafValues></_>
    <_>
      <internalNodes>
        0 -1 170223 -5.4461538791656494e-02</internalNodes>
      <leafValues>
        5.4466968774795532e-01 -9.7925417125225067e-02</leafValues></_>
    <_>
      <internalNodes>
        0 -1 20012 1.3068759813904762e-02</internalNodes>
      <leafValues>
        -2.0719671249389648e-01 2.8064557909965515e-01</leafValues></_>
    <_>
      <internalNodes>
        0 -1 85839 1.1001357343047857e-03</internalNodes>
      <leafValues>
        2.0663134753704071e-01 -3.0435210466384888e-01</leafValues></_>
    <_>
      <internalNodes>
        0 -1 261245 -1.0117037454620004e-03</internalNodes>
      <leafValues>
        -5.4577076435089111e-01 1.0657095909118652e-01</leafValues></_>
    <_>
      <internalNodes>
        0 -1 8505 2.5260898470878601e-01</internalNodes>
      <leafValues>
        6.8644292652606964e-02 -6.7625951766967773e-01</leafValues></_>
    <_>
      <internalNodes>
        0 -1 160960 5.9294320642948151e-02</internalNodes>
      <leafValues>
        -1.8831454217433929e-01 2.8722596168518066e-01</leafValues></_>
    <_>
      <internalNodes>
        0 -1 209308 3.6352768540382385e-02</internalNodes>
      <leafValues>
        8.9532122015953064e-02 -6.0859900712966919e-01</leafValues></_>
    <_>
      <internalNodes>
        0 -1 226608 2.7211472392082214e-02</internalNodes>
      <leafValues>
        -9.2767894268035889e-02 6.4615124464035034e-01</leafValues></_>
    <_>
      <internalNodes>
        0 -1 151800 -1.9677964970469475e-02</internalNodes>
      <leafValues>
        -7.9570746421813965e-01 7.8028261661529541e-02</leafValues></_>
    <_>
      <internalNodes>
        0 -1 213141 -5.4148951312527061e-04</internalNodes>
      <leafValues>
        3.4594187140464783e-01 -1.4672927558422089e-01</leafValues></_>
    <_>
      <internalNodes>
        0 -1 213141 7.9528661444783211e-04</internalNodes>
      <leafValues>
        -1.3186272978782654e-01 4.9569728970527649e-01</leafValues></_>
    <_>
      <internalNodes>
        0 -1 68018 5.0804458558559418e-02</internalNodes>
      <leafValues>
        -1.9953012466430664e-01 2.7556073665618896e-01</leafValues></_>
    <_>
      <internalNodes>
        0 -1 19991 -1.8529843538999557e-02</internalNodes>
      <leafValues>
        5.6967431306838989e-01 -1.2129807472229004e-01</leafValues></_>
    <_>
      <internalNodes>
        0 -1 27602 -2.8693851083517075e-02</internalNodes>
      <leafValues>
        -9.1111201047897339e-01 7.9184815287590027e-02</leafValues></_>
    <_>
      <internalNodes>
        0 -1 7661 -8.7755322456359863e-03</internalNodes>
      <leafValues>
        6.1715209484100342e-01 -9.8079271614551544e-02</leafValues></_>
    <_>
      <internalNodes>
        0 -1 197780 -2.7565352618694305e-02</internalNodes>
      <leafValues>
        -7.3534977436065674e-01 7.6069034636020660e-02</leafValues></_>
    <_>
      <internalNodes>
        0 -1 113462 1.8264051526784897e-02</internalNodes>
      <leafValues>
        8.5727892816066742e-02 -5.1725435256958008e-01</leafValues></_>
    <_>
      <internalNodes>
        0 -1 190908 3.0633280985057354e-03</internalNodes>
      <leafValues>
        -1.0611578077077866e-01 5.5788707733154297e-01</leafValues></_>
    <_>
      <internalNodes>
        0 -1 206603 3.8527157157659531e-03</internalNodes>
      <leafValues>
        -3.6711293458938599e-01 1.4119221270084381e-01</leafValues></_>
    <_>
      <internalNodes>
        0 -1 159963 -2.9025942087173462e-02</internalNodes>
      <leafValues>
        -5.4596030712127686e-01 9.9083535373210907e-02</leafValues></_></weakClassifiers></stage18>
</opencv_storage>
