<?xml version="1.0"?>
<opencv_storage>
<stage16>
  <maxWeakCount>43</maxWeakCount>
  <stageThreshold>-8.2642102241516113e-01</stageThreshold>
  <weakClassifiers>
    <_>
      <internalNodes>
        0 -1 25113 -5.2534043788909912e-02</internalNodes>
      <leafValues>
        6.1023622751235962e-01 1.1695906519889832e-01</leafValues></_>
    <_>
      <internalNodes>
        0 -1 35167 1.5165429562330246e-02</internalNodes>
      <leafValues>
        -1.8126003444194794e-01 2.6700621843338013e-01</leafValues></_>
    <_>
      <internalNodes>
        0 -1 147312 -1.7613397911190987e-02</internalNodes>
      <leafValues>
        1.9467699527740479e-01 -2.7461978793144226e-01</leafValues></_>
    <_>
      <internalNodes>
        0 -1 49157 7.2028813883662224e-03</internalNodes>
      <leafValues>
        -6.8649008870124817e-02 7.1180164813995361e-01</leafValues></_>
    <_>
      <internalNodes>
        0 -1 260762 5.0747804343700409e-03</internalNodes>
      <leafValues>
        -9.5393672585487366e-02 5.1981854438781738e-01</leafValues></_>
    <_>
      <internalNodes>
        0 -1 212385 -7.1865040808916092e-04</internalNodes>
      <leafValues>
        4.0938931703567505e-01 -1.2886324524879456e-01</leafValues></_>
    <_>
      <internalNodes>
        0 -1 212385 7.7782222069799900e-04</internalNodes>
      <leafValues>
        -1.3814058899879456e-01 4.1489601135253906e-01</leafValues></_>
    <_>
      <internalNodes>
        0 -1 239534 2.0036832429468632e-03</internalNodes>
      <leafValues>
        -7.9052910208702087e-02 4.3699252605438232e-01</leafValues></_>
    <_>
      <internalNodes>
        0 -1 176568 5.2431859076023102e-03</internalNodes>
      <leafValues>
        7.7904954552650452e-02 -5.2684444189071655e-01</leafValues></_>
    <_>
      <internalNodes>
        0 -1 152587 6.6191703081130981e-04</internalNodes>
      <leafValues>
        -1.2713298201560974e-01 3.5661700367927551e-01</leafValues></_>
    <_>
      <internalNodes>
        0 -1 136578 3.5714092664420605e-03</internalNodes>
      <leafValues>
        9.7922809422016144e-02 -4.7300595045089722e-01</leafValues></_>
    <_>
      <internalNodes>
        0 -1 27822 -8.8719034101814032e-04</internalNodes>
      <leafValues>
        1.5863633155822754e-01 -3.1251293420791626e-01</leafValues></_>
    <_>
      <internalNodes>
        0 -1 153176 1.0599084198474884e-03</internalNodes>
      <leafValues>
        -1.2091986835002899e-01 4.5187029242515564e-01</leafValues></_>
    <_>
      <internalNodes>
        0 -1 65890 8.1029422581195831e-03</internalNodes>
      <leafValues>
        -7.3943987488746643e-02 5.0754547119140625e-01</leafValues></_>
    <_>
      <internalNodes>
        0 -1 49310 -2.3267332464456558e-02</internalNodes>
      <leafValues>
        2.9334777593612671e-01 -1.5323586761951447e-01</leafValues></_>
    <_>
      <internalNodes>
        0 -1 97912 8.8482014834880829e-03</internalNodes>
      <leafValues>
        -7.9890668392181396e-02 6.2227356433868408e-01</leafValues></_>
    <_>
      <internalNodes>
        0 -1 30745 -9.9697113037109375e-02</internalNodes>
      <leafValues>
        -7.6783692836761475e-01 7.4161529541015625e-02</leafValues></_>
    <_>
      <internalNodes>
        0 -1 153176 -7.5127923628315330e-04</internalNodes>
      <leafValues>
        3.9062711596488953e-01 -1.3040047883987427e-01</leafValues></_>
    <_>
      <internalNodes>
        0 -1 185716 -2.4275574833154678e-02</internalNodes>
      <leafValues>
        -6.7945617437362671e-01 7.3466069996356964e-02</leafValues></_>
    <_>
      <internalNodes>
        0 -1 96872 2.5217562913894653e-02</internalNodes>
      <leafValues>
        -1.1399831622838974e-01 4.1375377774238586e-01</leafValues></_>
    <_>
      <internalNodes>
        0 -1 259810 1.1279921978712082e-02</internalNodes>
      <leafValues>
        -4.5255962759256363e-02 8.0693864822387695e-01</leafValues></_>
    <_>
      <internalNodes>
        0 -1 203159 -6.5477733733132482e-04</internalNodes>
      <leafValues>
        4.0546506643295288e-01 -9.4776637852191925e-02</leafValues></_>
    <_>
      <internalNodes>
        0 -1 62834 3.2942984253168106e-03</internalNodes>
      <leafValues>
        1.4454016089439392e-01 -3.1063356995582581e-01</leafValues></_>
    <_>
      <internalNodes>
        0 -1 243234 -6.2762730522081256e-05</internalNodes>
      <leafValues>
        -3.1332683563232422e-01 1.5683385729789734e-01</leafValues></_>
    <_>
      <internalNodes>
        0 -1 254116 -3.5249316133558750e-03</internalNodes>
      <leafValues>
        6.1116874217987061e-01 -6.7933209240436554e-02</leafValues></_>
    <_>
      <internalNodes>
        0 -1 246846 -3.9658676832914352e-03</internalNodes>
      <leafValues>
        3.6725109815597534e-01 -1.1773222684860229e-01</leafValues></_>
    <_>
      <internalNodes>
        0 -1 106957 2.0653242245316505e-03</internalNodes>
      <leafValues>
        -7.9426243901252747e-02 5.3997343778610229e-01</leafValues></_>
    <_>
      <internalNodes>
        0 -1 139801 -9.4968024641275406e-03</internalNodes>
      <leafValues>
        2.6907521486282349e-01 -1.6233019530773163e-01</leafValues></_>
    <_>
      <internalNodes>
        0 -1 92332 1.3018423924222589e-03</internalNodes>
      <leafValues>
        -8.3107009530067444e-02 5.2372694015502930e-01</leafValues></_>
    <_>
      <internalNodes>
        0 -1 229988 5.7323630899190903e-03</internalNodes>
      <leafValues>
        8.7997801601886749e-02 -5.0463986396789551e-01</leafValues></_>
    <_>
      <internalNodes>
        0 -1 139326 1.6389513621106744e-03</internalNodes>
      <leafValues>
        -1.2020446360111237e-01 3.4592303633689880e-01</leafValues></_>
    <_>
      <internalNodes>
        0 -1 149976 5.9352153912186623e-03</internalNodes>
      <leafValues>
        1.0264877229928970e-01 -4.3771383166313171e-01</leafValues></_>
    <_>
      <internalNodes>
        0 -1 222484 -1.4686198905110359e-02</internalNodes>
      <leafValues>
        -4.1154551506042480e-01 1.0340736806392670e-01</leafValues></_>
    <_>
      <internalNodes>
        0 -1 136496 -1.6613546758890152e-02</internalNodes>
      <leafValues>
        -6.4543384313583374e-01 6.6753916442394257e-02</leafValues></_>
    <_>
      <internalNodes>
        0 -1 136442 9.6610060427337885e-04</internalNodes>
      <leafValues>
        -1.1397656053304672e-01 4.1781657934188843e-01</leafValues></_>
    <_>
      <internalNodes>
        0 -1 141609 -4.2538030538707972e-04</internalNodes>
      <leafValues>
        -2.8619956970214844e-01 1.7272990942001343e-01</leafValues></_>
    <_>
      <internalNodes>
        0 -1 254987 -2.0611854270100594e-03</internalNodes>
      <leafValues>
        -5.9946823120117188e-01 7.4391663074493408e-02</leafValues></_>
    <_>
      <internalNodes>
        0 -1 45589 6.8365879997145385e-05</internalNodes>
      <leafValues>
        1.7164322733879089e-01 -2.4261435866355896e-01</leafValues></_>
    <_>
      <internalNodes>
        0 -1 255166 6.7368394229561090e-04</internalNodes>
      <leafValues>
        -1.1307407915592194e-01 3.8901767134666443e-01</leafValues></_>
    <_>
      <internalNodes>
        0 -1 72813 -8.4962192922830582e-03</internalNodes>
      <leafValues>
        5.9051942825317383e-01 -6.3484862446784973e-02</leafValues></_>
    <_>
      <internalNodes>
        0 -1 107824 2.1519744768738747e-03</internalNodes>
      <leafValues>
        1.2310355901718140e-01 -3.8795664906501770e-01</leafValues></_>
    <_>
      <internalNodes>
        0 -1 141609 -2.9324672650545835e-03</internalNodes>
      <leafValues>
        9.2815136909484863e-01 -5.5927898734807968e-02</leafValues></_>
    <_>
      <internalNodes>
        0 -1 163158 1.0478364303708076e-02</internalNodes>
      <leafValues>
        8.7221205234527588e-02 -6.1361515522003174e-01</leafValues></_></weakClassifiers></stage16>
</opencv_storage>
